[[[0.8248575 , 0.2960944 , 0.4920101 , 1.0704119 , 0.8601982 , 1.0382783, 0.4558992, 1.2644409, 0.09208   , -0.97672  , -0.9442238, -0.2312396, -0.3105833, -0.454302 , -0.6930288, -1.0865008],
      [0.3531382 , 0.1703674 , -0.4344442, 1.019343  , 0.4128327 , 1.113988 , 0.6637633, 1.3219085, 0.0542227 , -1.0863962, -1.50454  , -0.4367832, -0.5958251, -0.9008709, -1.3497063, -1.6357819],
      [-0.0887643, -0.5930363, -1.7331936, 0.4984929 , -0.282068 , 0.7542111, 0.3553503, 0.9771599, -0.2148464, -1.3985736, -2.0348284, -0.7450786, -0.9741594, -1.4990103, -2.1044924, -1.9706146],
      [-0.2251779, -1.095139 , -1.2853922, 0.2868277 , -0.6196855, 0.753597 , 0.4465356, 0.9422843, -0.2597762, -1.1883619, -1.780347 , -0.8774942, -0.994177 , -1.5559454, -2.5159814, -1.7793237],
      [-0.6934793, -1.8211722, -1.4673642, 0.0615801 , -0.9863834, 0.5650709, 0.4014298, 0.9608452, -0.1634724, -0.98238  , -1.5163409, -1.0451759, -1.2533077, -1.1774803, -1.3080587, -2.3268228],
      [-1.5606149, -1.6533848, -1.2924244, 0.2427014 , -1.2249237, 0.6634473, 0.6602506, 1.2006208, 0.3480524 , -0.8496178, -1.3116256, -0.5676423, -0.0770788, 0.1051976 , 0.1590847 , -0.0254684],
      [-0.7046765, -1.2490301, -1.3987889, 0.4017784 , -0.8227511, 0.6571232, 0.3782228, 1.0470365, 0.2542511 , -0.8549731, -1.272194 , -0.0992476, 0.4613612 , 0.5683528 , 0.4150686 , -0.0145752],
      [-0.4458688, -0.8738287, -1.2153285, 0.3521923 , -0.4188669, 0.699297 , 0.2773221, 0.9360302, 0.1503562 , -0.865362 , -1.1872958, 0.1388764 , 0.6579798 , 0.7212393 , 0.4733638 , -0.1340817],
      [-0.4519305, -0.9350444, -1.2497635, 0.5133092 , -0.1460798, 0.6873299, 0.295442 , 0.7467102, 0.0459742 , -0.9137208, -1.2321916, 0.3097428 , 0.7324829 , 0.714676  , 0.4396511 , -0.2957514],
      [-0.720502 , -1.2863685, -0.7979236, 0.8934582 , -0.1932796, 0.9421691, 0.3312928, 0.6365005, 0.2013848 , -0.7947816, -1.0418322, 0.6196123 , 0.5429277 , 0.0728047 , -0.4840567, -0.6439608],
      [-0.3047272, -1.0103024, -1.0506161, 0.4180373 , -0.7667142, 0.9356512, 0.355654 , 0.9941168, 0.1958763 , -0.4667126, -0.9443346, -0.2142735, -0.3667677, -0.8888914, -1.9116224, -1.3546788],
      [-0.7602471, -1.0769378, -0.8232448, 0.7191601 , -0.5616425, 0.9990425, 0.1931677, 1.0278952, 0.1768823 , -0.5074257, -0.9508669, -0.6777011, -0.6521124, -1.3170836, -2.1388161, -1.2356292],
      [-1.1380219, -0.6158959, -0.1247704, 0.4013264 , -0.0800764, 0.9146819, 0.2250115, 0.9260837, 0.0670433 , -0.5674257, -1.0949718, -1.9876313, -1.3798803, -2.1330292, -1.4662441, -0.717724 ],
      [-0.0465426, -1.5921159, -0.1698547, 0.0368429 , 0.0409309 , 0.8676753, 0.2785082, 1.0605385, -0.2619195, -0.6891115, -0.9291047, -0.8847748, -0.8885629, -0.6722218, -0.1479854, 0.1100617 ],
      [0.5437016 , -2.3944263, -0.2034707, -0.0702521, 0.2115186 , 0.7419962, 0.3640197, 1.0322868, -0.2676656, -0.7918767, -0.8773499, -0.3943119, -0.0157475, 0.102808  , 0.3744077 , 0.4163975 ]]]

       [[[-83.303978 , -80.1916199, -78.7959137, -76.632515 , -86.7867889, -89.4251099 , -87.5931473, -87.9490738 , -89.9107437, -83.9643707, -83.8970184 , -85.4148712, -79.1081696, -76.2803574, -78.8274536],
      [-71.8563843, -66.0349808, -64.8742676, -68.0797195, -77.8288651, -72.0999985 , -71.0957947, -73.3674088 , -75.692627 , -80.3996735, -79.106636  , -80.3447571, -79.7287979, -74.0766678, -72.9866028],
      [-56.4704514, -53.2512856, -53.2508698, -58.9829254, -61.4641533, -65.0643311 , -65.4982986, -68.5161362 , -68.8752213, -68.4221497, -69.3058929 , -69.2405548, -66.5785599, -64.8074875, -65.5354767],
      [-52.1983337, -48.7587814, -48.6267815, -52.2533112, -56.5841599, -56.4864922 , -58.6502457, -63.0956078 , -63.9305763, -62.5951843, -61.4328728 , -61.0808029, -61.8277626, -62.4197426, -62.9706955],
      [-50.2167931, -46.3746262, -46.1837463, -52.6098633, -66.8611832, -69.5973587 , -68.7167892, -72.6670761 , -75.0341492, -72.7203522, -72.3118057 , -74.9231949, -72.9857025, -67.2372742, -69.2757797],
      [-51.8324509, -46.1690712, -44.7097397, -44.3647537, -48.1681938, -50.5440559 , -52.2287292, -53.1341171 , -53.4449081, -53.3929367, -53.6601715 , -53.0468407, -55.1553307, -56.7597046, -58.6941414],
      [-57.7606812, -50.7424736, -49.1961746, -47.824604 , -52.3299141, -57.8948555 , -57.0290756, -56.8357697 , -57.9218941, -57.719223 , -57.6466026 , -56.7107773, -52.3867188, -47.5201225, -48.4477692],
      [-63.4771385, -56.8877907, -55.4239693, -53.1261482, -53.6216431, -56.5339241 , -57.2664986, -55.8550034 , -55.6791763, -53.3603516, -51.9058495 , -51.0920982, -53.4362526, -52.4109421, -55.5485992],
      [-76.1389465, -70.0593796, -67.4230347, -63.0809097, -63.0800171, -67.3931656 , -66.9470825, -68.066124  , -70.855423 , -71.7555237, -72.7953949 , -71.1452103, -68.23246  , -65.033989 , -66.0180283],
      [-91.1489182, -84.6233368, -81.6169357, -77.7364655, -80.4651413, -81.5829468 , -81.2060242, -81.0461655 , -81.0252533, -80.5716019, -79.558197  , -78.8450775, -78.6137009, -80.2670441, -83.5559616],
      [-86.8588638, -85.0957642, -85.0477219, -83.3645859, -82.3055191, -85.5965424 , -85.878334 , -86.75      , -86.6975098, -85.9090195, -86.1371002 , -86.3096695, -85.4189377, -85.2841034, -86.6808929],
      [-87.1983032, -90.7344055, -98.064682 , -80.1577377, -75.2711792, -84.8605042 , -85.8225861, -87.5459213 , -92.1725311, -98.4361191, -105.8698959, -94.6895905, -85.5659409, -89.9904709, -89.5784073],
      [-86.7536316, -89.9809265, -96.0567856, -80.4921722, -76.3009033, -83.9022446 , -85.9397202, -92.9985123 , -94.3050766, -87.5242538, -87.6412354 , -87.5249863, -86.5107422, -87.8376007, -95.9488373],
      [-83.7169571, -82.320694 , -82.0119629, -77.189621 , -79.8778076, -92.4783249 , -91.42276  , -98.711731  , -91.3297195, -82.6236725, -83.161972  , -87.4716492, -92.9732971, -88.658905 , -99.7772369],
      [-82.4951019, -79.8860474, -79.0806885, -76.664978 , -80.8551178, -97.4081268 , -98.1533508, -93.3831024 , -88.3180618, -83.8046341, -83.9792938 , -84.0378876, -85.4153366, -91.932663 , -90.4613113],
      [-82.9536438, -83.1091995, -86.5349731, -80.9538727, -80.341507 , -105.8479614, -101.166687, -100.7984848, -91.6221313, -95.0669556, -96.383812  , -83.5940552, -83.2727966, -98.5641632, -87.2586212]]]


      or
    [[[1.822423 , -0.3375117, -2.008105, -1.453861, -1.8393091, -1.9557501, -1.1613178, -0.6519657, -0.9101039, -2.6271625, -2.2112541, -2.0425067, -1.9509237, -1.546192 , -2.0683417, -1.6880175],
      [2.1689389, 2.2562025 , 2.2268488, 2.142307 , 1.7514838 , 2.4744651 , 2.8824499 , 2.4869835 , 1.2244227 , -0.5007718, -0.237572 , -0.2057187, -0.1680099, 0.1599014 , 0.298843  , 0.2337    ],
      [2.1417742, 2.9400671 , 2.6646821, 2.4019535, 1.6331513 , 2.501111  , 2.8018622 , 2.4596844 , 1.2848347 , -0.3179259, -0.6448618, -0.9646085, -0.9478763, -0.1445796, 0.1693549 , -0.1665167],
      [2.3382852, 3.4135354 , 2.826019 , 2.4531543, 1.7689362 , 2.5818038 , 2.7216799 , 2.3949413 , 1.3895545 , -0.1002111, -0.7781852, -1.64764  , -1.4897423, -0.1893914, 0.1502549 , -0.5304574],
      [2.683322 , 3.0163484 , 2.2000062, 2.5136175, 1.5909791 , 2.700911  , 2.8502929 , 2.649085  , 1.7944876 , 0.4105358 , -0.4562957, 0.0461647 , 0.019574  , 0.3852808 , 0.4700479 , 0.0839823 ],
      [0.5966612, 0.7670529 , 2.0569475, 2.356483 , 0.1980065 , 2.3556609 , 2.4025018 , 2.6737518 , 1.8503824 , 0.2240245 , -0.1325574, 0.6152783 , 0.5509312 , 0.2530853 , 0.1924191 , 0.219001  ],
      [0.1589841, 2.5035686 , 1.6119514, 2.971957 , 0.0837295 , 2.1252129 , 1.8079969 , 2.3483372 , 1.4755557 , 0.1808912 , -0.3806378, -0.0429031, -0.002856 , -0.7451804, -1.1093187, -1.8523909],
      [0.6447192, 2.6813874 , 1.8996892, 2.992408 , 0.6820088 , 1.9720271 , 1.847185  , 2.2346835 , 1.5047747 , 0.2708817 , -0.2606788, -0.0597125, -0.0993315, -0.5902464, -1.1947066, -1.4202683],
      [0.6120152, 1.9348315 , 1.1388658, 1.9629902, 0.4557598 , 1.8881741 , 1.8449655 , 2.241116  , 1.3797628 , 0.3047404 , -0.2713079, -0.2319073, -0.6877525, -1.2311535, -0.7518021, -1.4483094],
      [0.1685494, 1.266107  , 1.0228354, 1.6832563, 0.3730223 , 1.7764263 , 1.6883596 , 2.0913241 , 1.0967    , 0.3189798 , -0.1991072, -0.6383043, -0.8332654, -0.5361835, -0.2721716, -0.5841346],
      [1.4015681, 0.1430846 , 1.1203065, 1.8308961, 0.9794804 , 1.7742364 , 1.734527  , 2.2146413 , 0.993554  , 0.3280766 , -0.0698639, -1.2437222, -0.2330563, 0.2797229 , 0.2086994 , -0.7829587],
      [1.4706535, 0.4829725 , 0.9112707, 1.7952899, 1.093161  , 1.7244802 , 1.7533306 , 2.1979809 , 0.8635032 , 0.3809278 , -0.0905169, -1.9073006, -0.2073381, 0.2628315 , 0.2399041 , -0.8532068],
      [1.1287401, 0.1608558 , 0.9280657, 1.6656396, 0.6603472 , 1.7753923 , 1.8496208 , 2.1309321 , 1.0015389 , 0.429533  , -0.0817717, -0.7847015, -0.1031797, -0.0627504, 0.3108805 , 0.3714882 ],
      [2.573823 , 0.3720871 , 1.5544264, 1.3659425, 0.9188022 , 1.5829257 , 2.2451682 , 1.9141425 , 1.2366461 , 0.4701734 , 0.0995784 , 0.1214982 , 0.0831867 , -0.5123541, 0.2543165 , 0.4111182 ],
      [3.0667498, 1.8117549 , 1.9422905, 1.2453997, 1.9417945 , 1.424839  , 2.696919  , 1.972576  , 1.5332593 , 0.3920132 , 0.2112944 , -0.206343 , 0.0159931 , -0.0869057, -0.3310563, -1.0401609]]]