1.615776866674423218e-01,7.173244357109069824e-01,-3.600513339042663574e-01,-4.317452013492584229e-01,3.240724205970764160e-01,3.481120467185974121e-01,1.264496922492980957e+00,-4.993483126163482666e-01,-1.716446876525878906e+00,4.578845798969268799e-01,1.375126242637634277e-01,4.878286719322204590e-01,-5.463902950286865234e-01,3.269463777542114258e-01,1.437870383262634277e+00,-3.207933008670806885e-01,-7.860606908798217773e-01,-3.932978212833404541e-01,1.208361148834228516e+00,2.353659570217132568e-01,-1.731502294540405273e+00,1.235476493835449219e+00,9.039855003356933594e-02,-1.526147127151489258e+00,3.403080701828002930e-01,1.592718511819839478e-01,-2.563360691070556641e+00,-2.206249952316284180e+00,-7.624908089637756348e-01,1.445505380630493164e+00,-9.339705109596252441e-01,7.275081276893615723e-01,1.503642678260803223e+00,6.353123486042022705e-02,8.030033111572265625e-01,1.321001052856445312e-01,4.116766154766082764e-01,-1.856408268213272095e-01,-6.734496951103210449e-01,-5.280317068099975586e-01,2.325821816921234131e-01,-2.927263975143432617e-01,-4.784611463546752930e-01,-8.270282149314880371e-01,-2.972904443740844727e-01,-1.007838129997253418e+00,6.109450757503509521e-02,5.200375318527221680e-01
-3.452513832598924637e-03,-1.336529970169067383e+00,1.308408498764038086e+00,-3.600727319717407227e-01,-1.175992935895919800e-02,5.393897294998168945e-01,2.284594327211380005e-01,2.087873965501785278e-02,-1.792060136795043945e-01,1.588798642158508301e+00,-6.548770666122436523e-01,-3.042885959148406982e-01,-1.409039139747619629e+00,7.898665666580200195e-01,-5.386318564414978027e-01,1.924874544143676758e+00,1.953338645398616791e-02,-2.282663106918334961e+00,1.266022771596908569e-01,7.581895589828491211e-01,-3.125071525573730469e-01,1.693768948316574097e-01,9.127893447875976562e-01,2.597072720527648926e-01,-3.332494735717773438e+00,5.335280895233154297e-01,1.814848899841308594e+00,-2.814588308334350586e+00,2.285535097122192383e+00,3.076463699340820312e+00,-9.333670735359191895e-01,-2.458352297544479370e-01,6.821522116661071777e-01,1.597627997398376465e+00,-4.668914154171943665e-02,-1.084846377372741699e+00,8.561133742332458496e-01,-5.740663409233093262e-01,-1.318393647670745850e-01,3.352861702442169189e-01,-4.147407412528991699e-01,6.692518591880798340e-01,8.568079471588134766e-01,7.292349338531494141e-01,8.745934963226318359e-01,1.184138059616088867e+00,-6.561943292617797852e-01,-6.916561126708984375e-01
-9.521145373582839966e-02,-3.556398907676339149e-03,1.609508246183395386e-01,2.984281256794929504e-02,-2.202465385198593140e-01,1.361910402774810791e-01,3.772200345993041992e-01,-8.964907526969909668e-01,-7.566453814506530762e-01,1.897730082273483276e-01,1.050844714045524597e-01,4.187459051609039307e-01,4.666791260242462158e-01,1.352828383445739746e+00,-1.116645216941833496e+00,1.446906805038452148e+00,1.975263476371765137e+00,3.778667449951171875e-01,9.931989312171936035e-01,2.135787248611450195e+00,-6.897564530372619629e-01,-2.619797468185424805e+00,4.272846281528472900e-01,-1.666705250740051270e+00,-4.296140372753143311e-01,1.042730093002319336e+00,-4.769817292690277100e-01,2.500162124633789062e-01,-3.316564485430717468e-02,-5.073943138122558594e-01,-1.062359571456909180e+00,-1.575413048267364502e-01,1.595913767814636230e+00,-1.887445151805877686e-01,4.813833534717559814e-01,-2.668620049953460693e-01,1.545606702566146851e-01,-1.183445081114768982e-01,6.691344976425170898e-01,-3.985083699226379395e-01,-9.626450948417186737e-03,-5.791527405381202698e-02,-1.748253941535949707e+00,4.977345764636993408e-01,1.406136900186538696e-01,-5.424109697341918945e-01,5.862668156623840332e-01,4.138270020484924316e-01
-4.003115892410278320e-01,-4.915787652134895325e-02,4.963667094707489014e-01,1.228542685508728027e+00,5.958993434906005859e-01,-1.038601636886596680e+00,1.377211689949035645e+00,1.317198425531387329e-01,-1.696777462959289551e+00,3.302029967308044434e-01,2.122111916542053223e-01,-9.592766165733337402e-01,1.158550605177879333e-01,-1.370083987712860107e-01,8.381529450416564941e-01,7.704634070396423340e-01,4.387546181678771973e-01,1.982323169708251953e+00,-9.867287240922451019e-03,-1.541227340698242188e+00,4.897983670234680176e-01,-2.086551904678344727e+00,9.413799643516540527e-02,6.608991622924804688e-01,-1.114586472511291504e+00,3.201376795768737793e-01,6.620292663574218750e-01,1.921589732170104980e+00,3.258171677589416504e-01,8.978007435798645020e-01,-2.343396186828613281e+00,-1.781494498252868652e+00,-1.351436972618103027e-01,-2.623797357082366943e-01,6.619822978973388672e-02,-5.733544230461120605e-01,-1.265271455049514771e-01,-1.048604771494865417e-01,5.792835354804992676e-01,-7.128936648368835449e-01,1.378682374954223633e+00,-6.105946302413940430e-01,1.088364839553833008e+00,-1.324118971824645996e+00,-1.623441576957702637e-01,-8.682973682880401611e-02,-1.606066077947616577e-01,-1.905658282339572906e-02
1.615658164024353027e+00,-1.153308153152465820e+00,5.100411549210548401e-02,4.145072698593139648e-01,9.433984160423278809e-01,-1.478326469659805298e-01,7.164877653121948242e-01,-7.471098303794860840e-01,-1.114450931549072266e+00,1.337672829627990723e+00,-6.986818909645080566e-01,1.271316885948181152e+00,7.793805003166198730e-01,3.348873257637023926e-01,1.484649538993835449e+00,-1.057517647743225098e+00,-2.664629518985748291e-01,-9.116870164871215820e-01,2.144865274429321289e+00,-5.753396153450012207e-01,-1.923464179039001465e+00,1.785091638565063477e+00,-1.761712282896041870e-01,8.973836302757263184e-01,-1.430236250162124634e-01,-9.725254774093627930e-01,1.143494844436645508e+00,-1.342817306518554688e+00,-1.426638841629028320e+00,1.225027918815612793e+00,-1.395657539367675781e+00,-1.842909306287765503e-01,1.695090413093566895e+00,-1.026954174041748047e+00,2.356003671884536743e-01,1.310371279716491699e+00,-3.690620958805084229e-01,-3.661884963512420654e-01,-9.056421518325805664e-01,-6.749981641769409180e-01,4.917913079261779785e-01,1.116621270775794983e-01,-1.130558013916015625e+00,-6.039890050888061523e-01,1.364171266555786133e+00,2.915799319744110107e-01,-2.689051926136016846e-01,-1.139767646789550781e+00
-5.971841514110565186e-02,-4.761638343334197998e-01,4.356950521469116211e-01,-2.002421468496322632e-01,-1.332062184810638428e-01,1.159576654434204102e+00,-1.284611463546752930e+00,1.678481221199035645e+00,-2.288321703672409058e-01,2.979312837123870850e-01,-5.772209167480468750e-01,1.523624062538146973e+00,-1.004847049713134766e+00,9.531534314155578613e-01,2.758104801177978516e-01,-1.129093050956726074e+00,8.181349039077758789e-01,3.663451597094535828e-02,1.743597388267517090e+00,-7.807526737451553345e-02,-5.065284371376037598e-01,4.749117195606231689e-01,-1.509342074394226074e+00,-1.287008523941040039e+00,1.966358661651611328e+00,5.462512373924255371e-01,-1.406587511301040649e-01,2.689583301544189453e-01,-1.774290055036544800e-01,-1.296455502510070801e+00,9.343785047531127930e-01,-1.138463973999023438e+00,4.878230392932891846e-01,9.053863286972045898e-01,-1.116675138473510742e+00,1.618416905403137207e+00,2.328500598669052124e-01,-7.623634338378906250e-01,-1.254516988992691040e-01,6.275811791419982910e-01,-6.836158633232116699e-01,-1.288200736045837402e+00,-8.081474155187606812e-02,-4.982246086001396179e-02,-2.493182867765426636e-01,2.336936816573143005e-02,-2.374809980392456055e-01,-5.362555384635925293e-01
-2.020278573036193848e-01,-6.568687409162521362e-02,-5.507173538208007812e-01,-5.333126783370971680e-01,4.117356240749359131e-01,-4.234439730644226074e-01,7.236804813146591187e-02,8.475040197372436523e-01,-9.587838649749755859e-01,1.514374762773513794e-01,1.136253595352172852e+00,2.505342662334442139e-01,9.687843918800354004e-01,-3.425743877887725830e-01,2.180043756961822510e-01,-2.221308350563049316e-01,8.183828592300415039e-01,1.677451014518737793e+00,-1.196573972702026367e+00,-5.375201106071472168e-01,-3.216617405414581299e-01,2.635321378707885742e+00,-1.126178726553916931e-01,1.255911350250244141e+00,2.354023933410644531e+00,-2.432079017162322998e-01,-5.276182293891906738e-01,-2.241705179214477539e+00,-2.059963941574096680e+00,-8.604991436004638672e-01,-2.340532541275024414e+00,-7.787506580352783203e-01,-9.806937575340270996e-01,-2.273060381412506104e-01,4.213893786072731018e-02,1.599299013614654541e-01,9.135885834693908691e-01,4.985212087631225586e-01,-1.764091998338699341e-01,-6.061559915542602539e-02,6.290938258171081543e-01,5.936161279678344727e-01,-2.253904193639755249e-01,-1.014562100172042847e-01,-6.163067221641540527e-01,8.915224075317382812e-01,-2.008010745048522949e-01,3.287578523159027100e-01
8.783959746360778809e-01,-1.297753691673278809e+00,3.054320439696311951e-02,7.292236089706420898e-01,4.427608251571655273e-01,-1.076445698738098145e+00,-7.148210406303405762e-01,-1.229741692543029785e+00,4.926630556583404541e-01,8.072228431701660156e-01,8.114566206932067871e-01,-2.129449844360351562e+00,-1.627279639244079590e+00,-2.572104930877685547e-01,3.989839553833007812e-02,-1.228928327560424805e+00,1.074609756469726562e+00,3.118561804294586182e-01,1.715852975845336914e+00,1.245982289314270020e+00,8.606585264205932617e-01,6.371878385543823242e-01,-3.403256833553314209e-01,-1.424303412437438965e+00,4.960089325904846191e-01,6.095127463340759277e-01,-7.817386388778686523e-01,9.388458728790283203e-01,-7.818238735198974609e-01,1.229679957032203674e-02,-3.640756607055664062e-01,-1.116449713706970215e+00,2.288946866989135742e+00,-3.291352987289428711e-01,8.774346709251403809e-01,-1.334406971931457520e+00,-2.979497015476226807e-01,-3.157010078430175781e-01,5.269924998283386230e-01,3.730039000511169434e-01,7.249338030815124512e-01,1.226357936859130859e+00,-2.079573571681976318e-01,-2.090241014957427979e-01,-2.858183979988098145e-01,9.884177893400192261e-02,-1.969695240259170532e-01,-1.951646357774734497e-01
