-2.518510103225708008e+00,-1.269004106521606445e+00,-1.167806684970855713e-01,-1.489641427993774414e+00,-1.420427680015563965e+00,-3.349974870681762695e+00,2.439129590988159180e+00,1.024893879890441895e+00,2.882792651653289795e-01,-3.333858251571655273e+00,-1.480436801910400391e+00,1.614195823669433594e+00,3.468437194824218750e+00,2.306246995925903320e+00,9.902876019477844238e-01,-1.065966010093688965e+00,-6.285744905471801758e-01,-6.177406311035156250e-01,4.445912316441535950e-02,-1.643864393234252930e+00,-2.417411804199218750e+00,1.040309071540832520e+00,-8.770182728767395020e-02,1.745612621307373047e+00
1.940568923950195312e+00,-1.239314317703247070e+00,-3.366604089736938477e+00,-2.307534933090209961e+00,6.595717668533325195e-01,1.692628502845764160e+00,-6.560643672943115234e+00,-4.485341548919677734e+00,-1.156704664230346680e+00,-3.251230239868164062e+00,6.559439748525619507e-02,2.007281780242919922e+00,-2.764745712280273438e+00,-1.771603822708129883e+00,1.028169512748718262e+00,3.288066387176513672e+00,2.977946519851684570e+00,1.475748419761657715e+00,-4.241210460662841797e+00,1.205540895462036133e+00,1.451887965202331543e+00,4.149601459503173828e+00,2.312139272689819336e+00,1.711303949356079102e+00
2.447964906692504883e+00,1.387485861778259277e+00,1.902276754379272461e+00,4.142662525177001953e+00,1.628898978233337402e-01,7.513161301612854004e-01,3.268991112709045410e-01,1.119639515876770020e+00,-5.802182555198669434e-01,3.942100048065185547e+00,3.285771846771240234e+00,1.234983801841735840e+00,1.288206338882446289e+00,-2.241858720779418945e+00,-7.950381040573120117e-01,-3.425814151763916016e+00,1.409118056297302246e+00,1.542488932609558105e-01,1.337586164474487305e+00,-5.267814993858337402e-01,6.840823292732238770e-01,-4.622075557708740234e+00,-4.883073568344116211e-01,6.890448927879333496e-01
