1.074077248573303223e+00,1.392075181007385254e+00,6.201183795928955078e-01,3.511539697647094727e-01,8.132041692733764648e-01,1.455018818378448486e-01,-4.315594434738159180e-01,1.898505724966526031e-02,-1.159036636352539062e+00,-7.952469348907470703e+00,-4.975874423980712891e+00,-1.979544043540954590e+00,-5.364618897438049316e-01,-5.045258998870849609e-01,2.258702218532562256e-01,7.087447047233581543e-01,5.463308095932006836e-01,-1.529615044593811035e+00,5.161601066589355469e+00,3.021363973617553711e+00,1.213116168975830078e+00,-5.129529833793640137e-01,-5.966424345970153809e-01,2.872000336647033691e-01,1.059065461158752441e+00,7.294355630874633789e-01,1.975052654743194580e-01
-2.407886505126953125e+00,-3.074234724044799805e+00,-2.810477256774902344e+00,-2.466505765914916992e+00,-2.528295755386352539e+00,-2.996613502502441406e+00,-2.599432706832885742e+00,-1.974507093429565430e+00,-3.053683280944824219e+00,6.499930381774902344e+00,5.578430652618408203e+00,1.673927903175354004e+00,-2.943126857280731201e-01,4.108847379684448242e-01,-4.167074263095855713e-01,-4.942923188209533691e-01,-7.886945009231567383e-01,-1.282857418060302734e+00,3.299722909927368164e+00,4.194572925567626953e+00,3.387089490890502930e+00,1.126910448074340820e+00,-6.184095889329910278e-02,-1.159652948379516602e+00,-1.714333057403564453e+00,-1.835815787315368652e+00,-2.081422328948974609e+00
1.902660727500915527e+00,2.162961006164550781e+00,1.690208792686462402e+00,1.197375178337097168e+00,2.086381196975708008e+00,2.414008140563964844e+00,3.180685520172119141e+00,1.917525887489318848e+00,2.655402660369873047e+00,4.337633609771728516e+00,2.501040697097778320e+00,-7.814369797706604004e-01,-2.639186382293701172e-01,-3.859965801239013672e-01,-3.858404606580734253e-02,4.153030812740325928e-01,-1.529323756694793701e-01,5.243257284164428711e-01,-5.695884704589843750e+00,-5.660903930664062500e+00,-4.387213706970214844e+00,-1.625827908515930176e+00,-8.942835927009582520e-01,4.885446131229400635e-01,8.465791940689086914e-01,1.167461872100830078e+00,1.000181511044502258e-01
