-1.275321364402770996e+00,-4.543158113956451416e-01,3.914128541946411133e-01,5.705081224441528320e-01,2.209817320108413696e-01,-3.969017267227172852e-01,-9.858759641647338867e-01,-1.136175751686096191e+00,-1.894137382507324219e+00,-2.691997289657592773e+00,-1.358188271522521973e+00,-1.686157584190368652e-01,3.143717944622039795e-01,-6.356549859046936035e-01,-8.238990306854248047e-01,-1.295418143272399902e+00,-5.842572450637817383e-01,-6.720532774925231934e-01,4.231986045837402344e+00,3.462161064147949219e+00,1.694118857383728027e+00,7.500541806221008301e-01,2.983818054199218750e-01,2.143852859735488892e-01,4.505692794919013977e-02,-4.713188111782073975e-01,-9.198500514030456543e-01
-8.496687561273574829e-02,1.881149262189865112e-01,-1.177444756031036377e-01,1.318774223327636719e-01,6.903445720672607422e-01,1.243825674057006836e+00,1.214125990867614746e+00,1.695776104927062988e+00,2.118555307388305664e+00,-3.085791826248168945e+00,-1.141215682029724121e+00,-1.220597147941589355e+00,-4.660932421684265137e-01,1.449039280414581299e-01,4.009313583374023438e-01,5.768314599990844727e-01,-8.639951944351196289e-01,-5.542716979980468750e-01,-2.193373918533325195e+00,-2.377320528030395508e+00,-9.505733847618103027e-01,-2.308136522769927979e-01,-2.855276130139827728e-02,-1.937471777200698853e-01,4.755280613899230957e-01,1.153797388076782227e+00,9.530591964721679688e-01
1.346620559692382812e+00,1.635186523199081421e-01,-6.337150931358337402e-01,-8.352040052413940430e-01,-6.488962173461914062e-01,-3.833971321582794189e-01,-4.799719750881195068e-01,-3.569128811359405518e-01,-4.100141227245330811e-01,5.919455051422119141e+00,2.940081596374511719e+00,1.031345009803771973e+00,1.490654796361923218e-01,2.877749800682067871e-01,2.698507308959960938e-01,5.754169225692749023e-01,1.367343544960021973e+00,1.256675362586975098e+00,-1.907542943954467773e+00,-1.138034701347351074e+00,-5.459690690040588379e-01,-4.889220297336578369e-01,-5.166100859642028809e-01,-1.903004758059978485e-02,-2.252324968576431274e-01,-7.363407611846923828e-01,-1.005339622497558594e-01
