1.812771260738372803e-01,3.991544246673583984e-01,1.410541683435440063e-01,-4.683352112770080566e-01,1.933487355709075928e-01,1.079184114933013916e-01,7.376736402511596680e-01,1.495528072118759155e-01,-4.889904856681823730e-01,-7.367792725563049316e-02,-3.485316038131713867e-01,-6.977038383483886719e-01,-3.102774918079376221e-01,8.021134138107299805e-02,7.661584019660949707e-02,5.246437788009643555e-01,4.072675406932830811e-01,2.798868715763092041e-01,1.697847992181777954e-01,3.858925104141235352e-01,7.181980013847351074e-01,-3.204737901687622070e-01,-2.732799351215362549e-01,-3.341503143310546875e-01,-1.334160089492797852e+00,-6.850094199180603027e-01,6.693439930677413940e-02,-1.938715577125549316e-01,6.928023099899291992e-01,1.033642172813415527e+00,1.757519841194152832e-01,1.048007011413574219e-01,-4.013004302978515625e-01,-4.025991559028625488e-01,-7.964355945587158203e-01,1.960715465247631073e-02,-1.504157204180955887e-02,2.115354835987091064e-01,2.098854333162307739e-01,6.732114553451538086e-01,2.102609425783157349e-01,-3.749601840972900391e-01,-1.757828146219253540e-01,-3.944992125034332275e-01,-3.310253620147705078e-01,1.252710521221160889e-01,3.298304080963134766e-01,3.485022485256195068e-01
-9.417685214430093765e-05,5.626087635755538940e-02,-4.186416417360305786e-02,7.414809465408325195e-01,-5.540154576301574707e-01,-9.887300431728363037e-02,-5.506240129470825195e-01,-4.347817599773406982e-02,3.756023943424224854e-01,-3.437191247940063477e-01,-1.864396035671234131e-01,-1.967630237340927124e-01,-3.559022545814514160e-01,-3.058075904846191406e-01,-5.453938841819763184e-01,-7.065693140029907227e-01,-3.984584510326385498e-01,-6.116695404052734375e-01,4.586413502693176270e-01,-3.383498638868331909e-03,-5.157477259635925293e-01,1.383599936962127686e-01,-6.295224428176879883e-01,-5.884341597557067871e-01,1.793388247489929199e+00,7.970205545425415039e-01,-3.175047338008880615e-01,6.849387288093566895e-01,-3.626346290111541748e-01,-1.085987329483032227e+00,-1.477793883532285690e-02,-3.843515515327453613e-01,-3.904053568840026855e-01,2.991178631782531738e-01,8.998126983642578125e-01,-1.549401581287384033e-01,6.155755519866943359e-01,2.535133361816406250e-01,-1.361194998025894165e-01,-4.723791480064392090e-01,1.536693274974822998e-01,4.694431647658348083e-02,-1.615124754607677460e-02,-3.476702570915222168e-01,1.956289559602737427e-01,-1.582563519477844238e-01,-3.200124502182006836e-01,2.107347100973129272e-01
-1.364187151193618774e-01,-8.790610730648040771e-02,1.783297508955001831e-01,-4.488100111484527588e-02,6.629506498575210571e-02,3.617174327373504639e-01,-5.145129561424255371e-01,3.014904856681823730e-01,-8.007989078760147095e-02,-2.301797866821289062e-01,-1.637241542339324951e-01,-2.129669487476348877e-01,-2.859885990619659424e-01,-3.593474030494689941e-01,-5.744909048080444336e-01,-6.159896850585937500e-01,-9.689952135086059570e-01,-6.925728321075439453e-01,1.572076380252838135e-01,-2.177841514348983765e-01,-3.072472214698791504e-01,3.476523458957672119e-01,3.763901814818382263e-02,7.580404728651046753e-02,8.109049201011657715e-01,4.394566714763641357e-01,3.198165595531463623e-01,3.315130174160003662e-01,-2.760989367961883545e-01,-1.519863456487655640e-01,8.189451098442077637e-01,8.738092184066772461e-01,9.193699955940246582e-01,2.454329431056976318e-01,6.122266873717308044e-02,-5.278438925743103027e-01,1.858159601688385010e-01,-2.624011337757110596e-01,-1.196144297719001770e-01,1.999155282974243164e-01,1.499535739421844482e-01,5.954797863960266113e-01,3.215548098087310791e-01,4.378263279795646667e-02,1.954666525125503540e-01,2.490288168191909790e-01,-2.380674891173839569e-02,-1.080467179417610168e-01
-3.453865647315979004e-01,-1.059761047363281250e-01,-4.692391753196716309e-01,-4.369699060916900635e-01,-1.681911759078502655e-02,-1.615533381700515747e-01,-1.469005644321441650e-01,-1.333518624305725098e-01,1.208607405424118042e-01,8.596385270357131958e-02,-2.547604441642761230e-01,-4.087654054164886475e-01,2.983983457088470459e-01,1.522354185581207275e-01,1.852110475301742554e-01,4.491671174764633179e-02,2.325332611799240112e-01,-9.346301853656768799e-02,-2.273132503032684326e-01,-3.597356379032135010e-01,-4.908682107925415039e-01,8.355309069156646729e-02,2.056937664747238159e-02,-5.687685310840606689e-02,-1.201161265373229980e+00,-3.125847578048706055e-01,3.286487758159637451e-01,-3.532351553440093994e-01,3.932851254940032959e-01,8.281950354576110840e-01,-1.294722259044647217e-01,-1.163855865597724915e-01,-4.802327156066894531e-01,5.635440349578857422e-02,1.184429526329040527e-01,-1.134344339370727539e-01,-1.215117573738098145e-01,7.774278521537780762e-02,5.011335611343383789e-01,-5.341957509517669678e-02,4.101458191871643066e-01,1.393298208713531494e-01,2.553727328777313232e-01,2.460131943225860596e-01,4.885313659906387329e-02,3.540842831134796143e-01,1.484221369028091431e-01,-1.171707287430763245e-01
-3.459519445896148682e-01,-2.137374579906463623e-01,4.873414337635040283e-01,8.302395939826965332e-01,-5.091637000441551208e-02,-6.295188516378402710e-02,-5.218213200569152832e-01,-9.181624650955200195e-01,-8.511172980070114136e-02,-5.777450799942016602e-01,-4.882035553455352783e-01,3.267807364463806152e-01,8.102556318044662476e-02,-4.281166568398475647e-02,-1.886780187487602234e-02,1.227272272109985352e+00,9.577680826187133789e-01,7.979171872138977051e-01,-1.214678734540939331e-01,4.762062430381774902e-01,6.313931941986083984e-01,9.554079920053482056e-02,7.072538137435913086e-01,8.093696832656860352e-01,-6.607840061187744141e-01,-3.072120547294616699e-01,2.662767767906188965e-01,3.917893767356872559e-02,2.252827137708663940e-01,2.826895713806152344e-01,-7.952219247817993164e-01,-4.434951543807983398e-01,-1.501554250717163086e-01,2.745675668120384216e-02,-1.151973158121109009e-01,3.433490991592407227e-01,-5.512009263038635254e-01,-4.190637469291687012e-01,-1.445578783750534058e-01,9.125787019729614258e-02,-1.109101530164480209e-02,2.800869941711425781e-01,1.983575075864791870e-01,2.256314642727375031e-02,-1.407668739557266235e-01,-7.361121475696563721e-02,-3.618170917034149170e-01,-3.124438822269439697e-01
1.922176033258438110e-01,-1.261912584304809570e-01,4.040918350219726562e-01,4.025632739067077637e-01,-1.486271768808364868e-01,-7.350756973028182983e-02,-1.522179394960403442e-01,-2.727510631084442139e-01,-4.475723803043365479e-01,8.663473278284072876e-02,2.508518099784851074e-01,2.060984224081039429e-01,1.506023854017257690e-02,-2.680881023406982422e-01,-6.163657903671264648e-01,4.971690475940704346e-01,2.064018249511718750e-01,6.018650531768798828e-01,6.702221930027008057e-02,1.340472251176834106e-01,4.085620045661926270e-01,9.866712987422943115e-02,2.532522939145565033e-02,3.841453194618225098e-01,8.998554944992065430e-01,-9.794536232948303223e-02,-5.807905793190002441e-01,2.427065819501876831e-01,-4.803620576858520508e-01,-1.060010552406311035e+00,1.022140309214591980e-01,3.153875470161437988e-01,4.585806727409362793e-01,-4.341426119208335876e-02,7.745593786239624023e-02,-3.216684758663177490e-01,-9.341292828321456909e-02,-1.789900213479995728e-01,-1.553950607776641846e-01,-2.470640540122985840e-01,-2.969751954078674316e-01,2.434488534927368164e-01,-3.994981348514556885e-01,-8.439631760120391846e-02,2.039301693439483643e-01,-5.943564325571060181e-02,-1.456884890794754028e-01,2.840546332299709320e-02
7.272978778928518295e-03,8.692963980138301849e-03,-5.727803334593772888e-02,1.985026150941848755e-01,-2.364600300788879395e-01,-3.582246899604797363e-01,-2.179019153118133545e-01,4.296927154064178467e-01,-3.194957971572875977e-02,-3.205410242080688477e-01,-2.405509352684020996e-02,-2.030661553144454956e-01,-1.596434116363525391e-01,1.190623939037322998e-01,3.396236300468444824e-01,-3.875084817409515381e-01,-4.358614087104797363e-01,-4.044428467750549316e-01,1.038493156433105469e+00,3.811030089855194092e-01,7.409285753965377808e-02,-3.832121193408966064e-01,-7.872769236564636230e-01,-4.602785706520080566e-01,5.224564671516418457e-01,5.982733964920043945e-01,8.414568901062011719e-01,1.152210384607315063e-01,6.105245649814605713e-02,4.387020468711853027e-01,4.657056033611297607e-01,-2.377872765064239502e-01,-8.525408506393432617e-01,7.272409796714782715e-01,5.580896511673927307e-02,-2.853922545909881592e-01,6.303297281265258789e-01,-4.766767621040344238e-01,-6.735102534294128418e-01,2.126588523387908936e-01,-1.028687357902526855e-01,-3.392000496387481689e-01,2.498059719800949097e-01,1.745581179857254028e-01,3.220563828945159912e-01,3.865771889686584473e-01,-6.209917366504669189e-02,4.741534218192100525e-02
1.618360579013824463e-01,9.163953661918640137e-01,4.240742027759552002e-01,-3.083733916282653809e-01,1.888215839862823486e-01,-4.949066340923309326e-01,6.664124727249145508e-01,3.301397562026977539e-01,2.881737649440765381e-01,8.488897681236267090e-01,3.716635406017303467e-01,2.926147878170013428e-01,-4.058343470096588135e-01,-4.790077507495880127e-01,-3.855452239513397217e-01,6.511480212211608887e-01,3.449667096138000488e-01,-2.666735053062438965e-01,-3.689637407660484314e-02,3.925099223852157593e-02,-4.207477271556854248e-01,-2.155617438256740570e-02,8.966187387704849243e-02,-1.171492561697959900e-01,-8.043417334556579590e-01,-3.203189373016357422e-01,-3.663089573383331299e-01,1.525911390781402588e-01,4.950171113014221191e-01,3.768462240695953369e-01,-7.535721659660339355e-01,-7.971494197845458984e-01,-7.899171113967895508e-01,-9.383701533079147339e-02,-6.492786854505538940e-02,3.061419725418090820e-01,-1.068482547998428345e-01,1.379740238189697266e-01,-1.086805313825607300e-01,-2.572957873344421387e-01,1.058437488973140717e-02,-7.166638374328613281e-01,2.450869828462600708e-01,3.895846009254455566e-01,-1.893006414175033569e-01,1.026583611965179443e-01,4.621953070163726807e-01,4.910500347614288330e-01
