-1.335004329681396484e+00,-3.724779784679412842e-01,-1.679126381874084473e+00,7.451456189155578613e-01,-7.813916802406311035e-01,-4.233115613460540771e-01,2.098637372255325317e-01,9.374514222145080566e-01,1.506308436393737793e+00,-3.626474738121032715e-01,-1.514259725809097290e-01,4.422380328178405762e-01,-1.731797754764556885e-01,-7.271988689899444580e-02,3.479409217834472656e-01,5.102519989013671875e-01,-2.961184978485107422e-01,1.366954147815704346e-01,1.007673859596252441e+00,2.976249456405639648e-01,7.475045919418334961e-01,2.105935811996459961e-01,-5.583910942077636719e-01,-1.016762971878051758e+00
-2.028425693511962891e+00,1.148884415626525879e+00,7.755841016769409180e-01,3.214877843856811523e+00,-8.416063785552978516e-01,-1.814857721328735352e+00,1.510740399360656738e+00,1.432322144508361816e+00,3.727772533893585205e-01,-1.934915423393249512e+00,-4.430717527866363525e-01,-1.309582114219665527e+00,-1.802784800529479980e+00,2.786726504564285278e-02,7.205623388290405273e-01,2.101324319839477539e+00,1.021720767021179199e+00,1.017131328582763672e+00,4.168103337287902832e-01,-1.033692359924316406e+00,-4.686785638332366943e-01,-2.249528646469116211e+00,-1.356131553649902344e+00,-1.215999245643615723e+00
-3.266112506389617920e-01,-1.192969322204589844e+00,4.956808388233184814e-01,-1.807245969772338867e+00,2.732292935252189636e-02,5.021244883537292480e-01,-7.315289974212646484e-01,1.285398483276367188e+00,6.767660975456237793e-01,1.108877584338188171e-01,2.798820436000823975e-01,7.615875601768493652e-01,3.504985809326171875e+00,6.392170786857604980e-01,-1.266905546188354492e+00,-2.151490747928619385e-01,1.171389669179916382e-01,-6.162536144256591797e-01,-2.789105892181396484e+00,-3.500140309333801270e-01,-8.906414508819580078e-01,3.414770960807800293e-01,2.972684204578399658e-01,1.493515223264694214e-01
