[[[ 1.81277126e-01  3.99154425e-01  1.41054168e-01]
  [-4.68335211e-01  1.93348736e-01  1.07918411e-01]
  [ 7.37673640e-01  1.49552807e-01 -4.88990486e-01]
  [-7.36779273e-02 -3.48531604e-01 -6.97703838e-01]
  [-3.10277492e-01  8.02113414e-02  7.66158402e-02]
  [ 5.24643779e-01  4.07267541e-01  2.79886872e-01]
  [ 1.69784799e-01  3.85892510e-01  7.18198001e-01]
  [-3.20473790e-01 -2.73279935e-01 -3.34150314e-01]
  [-1.33416009e+00 -6.85009420e-01  6.69343993e-02]
  [-1.93871558e-01  6.92802310e-01  1.03364217e+00]
  [ 1.75751984e-01  1.04800701e-01 -4.01300430e-01]
  [-4.02599156e-01 -7.96435595e-01  1.96071547e-02]
  [-1.50415720e-02  2.11535484e-01  2.09885433e-01]
  [ 6.73211455e-01  2.10260943e-01 -3.74960184e-01]
  [-1.75782815e-01 -3.94499213e-01 -3.31025362e-01]
  [ 1.25271052e-01  3.29830408e-01  3.48502249e-01]]

 [[-9.41768521e-05  5.62608764e-02 -4.18641642e-02]
  [ 7.41480947e-01 -5.54015458e-01 -9.88730043e-02]
  [-5.50624013e-01 -4.34781760e-02  3.75602394e-01]
  [-3.43719125e-01 -1.86439604e-01 -1.96763024e-01]
  [-3.55902255e-01 -3.05807590e-01 -5.45393884e-01]
  [-7.06569314e-01 -3.98458451e-01 -6.11669540e-01]
  [ 4.58641350e-01 -3.38349864e-03 -5.15747726e-01]
  [ 1.38359994e-01 -6.29522443e-01 -5.88434160e-01]
  [ 1.79338825e+00  7.97020555e-01 -3.17504734e-01]
  [ 6.84938729e-01 -3.62634629e-01 -1.08598733e+00]
  [-1.47779388e-02 -3.84351552e-01 -3.90405357e-01]
  [ 2.99117863e-01  8.99812698e-01 -1.54940158e-01]
  [ 6.15575552e-01  2.53513336e-01 -1.36119500e-01]
  [-4.72379148e-01  1.53669327e-01  4.69443165e-02]
  [-1.61512475e-02 -3.47670257e-01  1.95628956e-01]
  [-1.58256352e-01 -3.20012450e-01  2.10734710e-01]]

 [[-1.36418715e-01 -8.79061073e-02  1.78329751e-01]
  [-4.48810011e-02  6.62950650e-02  3.61717433e-01]
  [-5.14512956e-01  3.01490486e-01 -8.00798908e-02]
  [-2.30179787e-01 -1.63724154e-01 -2.12966949e-01]
  [-2.85988599e-01 -3.59347403e-01 -5.74490905e-01]
  [-6.15989685e-01 -9.68995214e-01 -6.92572832e-01]
  [ 1.57207638e-01 -2.17784151e-01 -3.07247221e-01]
  [ 3.47652346e-01  3.76390181e-02  7.58040473e-02]
  [ 8.10904920e-01  4.39456671e-01  3.19816560e-01]
  [ 3.31513017e-01 -2.76098937e-01 -1.51986346e-01]
  [ 8.18945110e-01  8.73809218e-01  9.19369996e-01]
  [ 2.45432943e-01  6.12226687e-02 -5.27843893e-01]
  [ 1.85815960e-01 -2.62401134e-01 -1.19614430e-01]
  [ 1.99915528e-01  1.49953574e-01  5.95479786e-01]
  [ 3.21554810e-01  4.37826328e-02  1.95466653e-01]
  [ 2.49028817e-01 -2.38067489e-02 -1.08046718e-01]]

 [[-3.45386565e-01 -1.05976105e-01 -4.69239175e-01]
  [-4.36969906e-01 -1.68191176e-02 -1.61553338e-01]
  [-1.46900564e-01 -1.33351862e-01  1.20860741e-01]
  [ 8.59638527e-02 -2.54760444e-01 -4.08765405e-01]
  [ 2.98398346e-01  1.52235419e-01  1.85211048e-01]
  [ 4.49167117e-02  2.32533261e-01 -9.34630185e-02]
  [-2.27313250e-01 -3.59735638e-01 -4.90868211e-01]
  [ 8.35530907e-02  2.05693766e-02 -5.68768531e-02]
  [-1.20116127e+00 -3.12584758e-01  3.28648776e-01]
  [-3.53235155e-01  3.93285125e-01  8.28195035e-01]
  [-1.29472226e-01 -1.16385587e-01 -4.80232716e-01]
  [ 5.63544035e-02  1.18442953e-01 -1.13434434e-01]
  [-1.21511757e-01  7.77427852e-02  5.01133561e-01]
  [-5.34195751e-02  4.10145819e-01  1.39329821e-01]
  [ 2.55372733e-01  2.46013194e-01  4.88531366e-02]
  [ 3.54084283e-01  1.48422137e-01 -1.17170729e-01]]

 [[-3.45951945e-01 -2.13737458e-01  4.87341434e-01]
  [ 8.30239594e-01 -5.09163700e-02 -6.29518852e-02]
  [-5.21821320e-01 -9.18162465e-01 -8.51117298e-02]
  [-5.77745080e-01 -4.88203555e-01  3.26780736e-01]
  [ 8.10255632e-02 -4.28116657e-02 -1.88678019e-02]
  [ 1.22727227e+00  9.57768083e-01  7.97917187e-01]
  [-1.21467873e-01  4.76206243e-01  6.31393194e-01]
  [ 9.55407992e-02  7.07253814e-01  8.09369683e-01]
  [-6.60784006e-01 -3.07212055e-01  2.66276777e-01]
  [ 3.91789377e-02  2.25282714e-01  2.82689571e-01]
  [-7.95221925e-01 -4.43495154e-01 -1.50155425e-01]
  [ 2.74567567e-02 -1.15197316e-01  3.43349099e-01]
  [-5.51200926e-01 -4.19063747e-01 -1.44557878e-01]
  [ 9.12578702e-02 -1.10910153e-02  2.80086994e-01]
  [ 1.98357508e-01  2.25631464e-02 -1.40766874e-01]
  [-7.36112148e-02 -3.61817092e-01 -3.12443882e-01]]

 [[ 1.92217603e-01 -1.26191258e-01  4.04091835e-01]
  [ 4.02563274e-01 -1.48627177e-01 -7.35075697e-02]
  [-1.52217939e-01 -2.72751063e-01 -4.47572380e-01]
  [ 8.66347328e-02  2.50851810e-01  2.06098422e-01]
  [ 1.50602385e-02 -2.68088102e-01 -6.16365790e-01]
  [ 4.97169048e-01  2.06401825e-01  6.01865053e-01]
  [ 6.70222193e-02  1.34047225e-01  4.08562005e-01]
  [ 9.86671299e-02  2.53252294e-02  3.84145319e-01]
  [ 8.99855494e-01 -9.79453623e-02 -5.80790579e-01]
  [ 2.42706582e-01 -4.80362058e-01 -1.06001055e+00]
  [ 1.02214031e-01  3.15387547e-01  4.58580673e-01]
  [-4.34142612e-02  7.74559379e-02 -3.21668476e-01]
  [-9.34129283e-02 -1.78990021e-01 -1.55395061e-01]
  [-2.47064054e-01 -2.96975195e-01  2.43448853e-01]
  [-3.99498135e-01 -8.43963176e-02  2.03930169e-01]
  [-5.94356433e-02 -1.45688489e-01  2.84054633e-02]]

 [[ 7.27297878e-03  8.69296398e-03 -5.72780333e-02]
  [ 1.98502615e-01 -2.36460030e-01 -3.58224690e-01]
  [-2.17901915e-01  4.29692715e-01 -3.19495797e-02]
  [-3.20541024e-01 -2.40550935e-02 -2.03066155e-01]
  [-1.59643412e-01  1.19062394e-01  3.39623630e-01]
  [-3.87508482e-01 -4.35861409e-01 -4.04442847e-01]
  [ 1.03849316e+00  3.81103009e-01  7.40928575e-02]
  [-3.83212119e-01 -7.87276924e-01 -4.60278571e-01]
  [ 5.22456467e-01  5.98273396e-01  8.41456890e-01]
  [ 1.15221038e-01  6.10524565e-02  4.38702047e-01]
  [ 4.65705603e-01 -2.37787277e-01 -8.52540851e-01]
  [ 7.27240980e-01  5.58089651e-02 -2.85392255e-01]
  [ 6.30329728e-01 -4.76676762e-01 -6.73510253e-01]
  [ 2.12658852e-01 -1.02868736e-01 -3.39200050e-01]
  [ 2.49805972e-01  1.74558118e-01  3.22056383e-01]
  [ 3.86577189e-01 -6.20991737e-02  4.74153422e-02]]

 [[ 1.61836058e-01  9.16395366e-01  4.24074203e-01]
  [-3.08373392e-01  1.88821584e-01 -4.94906634e-01]
  [ 6.66412473e-01  3.30139756e-01  2.88173765e-01]
  [ 8.48889768e-01  3.71663541e-01  2.92614788e-01]
  [-4.05834347e-01 -4.79007751e-01 -3.85545224e-01]
  [ 6.51148021e-01  3.44966710e-01 -2.66673505e-01]
  [-3.68963741e-02  3.92509922e-02 -4.20747727e-01]
  [-2.15561744e-02  8.96618739e-02 -1.17149256e-01]
  [-8.04341733e-01 -3.20318937e-01 -3.66308957e-01]
  [ 1.52591139e-01  4.95017111e-01  3.76846224e-01]
  [-7.53572166e-01 -7.97149420e-01 -7.89917111e-01]
  [-9.38370153e-02 -6.49278685e-02  3.06141973e-01]
  [-1.06848255e-01  1.37974024e-01 -1.08680531e-01]
  [-2.57295787e-01  1.05843749e-02 -7.16663837e-01]
  [ 2.45086983e-01  3.89584601e-01 -1.89300641e-01]
  [ 1.02658361e-01  4.62195307e-01  4.91050035e-01]]]
