-3.034207105636596680e+00,-1.805319666862487793e+00,9.888301789760589600e-02,7.111256122589111328e-01,4.389396011829376221e-01,-7.282719016075134277e-02,-7.205113172531127930e-01,-8.858790993690490723e-01,-1.402306675910949707e+00,-3.328066349029541016e+00,-1.857204079627990723e+00,4.645974934101104736e-02,6.093669533729553223e-01,-7.413774132728576660e-01,-7.297778129577636719e-01,-1.165931940078735352e+00,-3.498091399669647217e-01,-1.861825436353683472e-01,3.673741102218627930e+00,3.270488739013671875e+00,1.927896261215209961e+00,1.245546340942382812e+00,1.290016889572143555e+00,8.097251653671264648e-01,8.809190392494201660e-01,1.867109537124633789e-01,-5.005442500114440918e-01
1.409944534301757812e+00,1.221956133842468262e+00,8.230522274971008301e-02,2.769766561686992645e-02,1.242290213704109192e-01,7.486771941184997559e-01,1.084215521812438965e+00,1.726452231407165527e+00,1.870695948600769043e+00,-2.007294178009033203e+00,-5.387496948242187500e-01,-1.363723516464233398e+00,-4.288603961467742920e-01,5.504930019378662109e-01,6.798489689826965332e-01,8.565435409545898438e-01,-9.925932884216308594e-01,-1.165573954582214355e+00,-5.013107657432556152e-01,-1.194028377532958984e+00,-5.223420262336730957e-01,-5.326212048530578613e-01,-5.388321280479431152e-01,-2.210840396583080292e-02,3.244754076004028320e-01,1.591099739074707031e+00,1.719034790992736816e+00
1.978050708770751953e+00,8.413026928901672363e-01,-1.849717944860458374e-01,-5.174769759178161621e-01,5.199347436428070068e-02,1.421234458684921265e-01,-2.573938667774200439e-01,-2.742234468460083008e-01,-2.867029607295989990e-01,5.780170440673828125e+00,3.132292509078979492e+00,1.249019265174865723e+00,1.037616804242134094e-01,2.738875746726989746e-01,1.828952878713607788e-01,4.519172608852386475e-01,1.549787163734436035e+00,1.673069000244140625e+00,-2.727021455764770508e+00,-1.813221216201782227e+00,-8.866199851036071777e-01,-3.573424816131591797e-01,-6.687387824058532715e-01,-4.559673070907592773e-01,-5.799052715301513672e-01,-1.503826379776000977e+00,-9.591073393821716309e-01
-4.384274482727050781e-01,-1.717635095119476318e-01,-5.388519167900085449e-01,-5.386568903923034668e-01,-1.630961298942565918e-01,-4.762049019336700439e-01,-3.211329579353332520e-01,-3.802810013294219971e-01,-4.078283607959747314e-01,-3.461368978023529053e-01,-1.733605414628982544e-01,-2.804274260997772217e-01,-4.742972850799560547e-01,-3.995948731899261475e-01,-3.516902029514312744e-01,-1.888529807329177856e-01,-4.128383100032806396e-01,-1.094913929700851440e-01,-3.571924865245819092e-01,-3.509984016418457031e-01,-1.705528795719146729e-01,-2.285378426313400269e-01,-1.660048812627792358e-01,-2.187224626541137695e-01,-3.885185122489929199e-01,-4.555296301841735840e-01,-3.410242199897766113e-01
