-1.945439577102661133e+00,8.627966046333312988e-02,-1.392167091369628906e+00,1.877354621887207031e+00,-9.356046319007873535e-01,-7.032016515731811523e-01,1.087651371955871582e+00,1.549204736948013306e-01,1.305897593498229980e+00,3.040193207561969757e-02,3.849067091941833496e-01,4.968044757843017578e-01,-1.567078709602355957e+00,-8.928013443946838379e-01,8.728150725364685059e-01,1.696584701538085938e+00,-4.810661971569061279e-01,8.853619098663330078e-01,1.222930699586868286e-01,5.547413825988769531e-01,1.092024207115173340e+00,-5.464358925819396973e-01,-7.672298550605773926e-01,-8.278803229331970215e-01
-1.451467394828796387e+00,1.434730172157287598e+00,9.682478904724121094e-01,3.000952959060668945e+00,-5.498523712158203125e-01,-1.467832207679748535e+00,2.487744808197021484e+00,4.615049958229064941e-01,-3.867133855819702148e-01,-2.172653675079345703e+00,-1.028265595436096191e+00,-1.654634952545166016e+00,-2.173986434936523438e+00,3.886917233467102051e-01,6.589967608451843262e-01,2.261786222457885742e+00,-4.812246561050415039e-01,-7.008563876152038574e-01,9.111048579216003418e-01,1.775864064693450928e-01,4.604326188564300537e-01,-1.878771662712097168e+00,-7.548971772193908691e-01,-7.007491588592529297e-01
3.243617117404937744e-01,-1.078858971595764160e+00,6.619418505579233170e-03,-1.794383406639099121e+00,2.363405190408229828e-02,4.829519689083099365e-01,-1.012371897697448730e+00,1.047859191894531250e+00,8.798849582672119141e-01,2.903531789779663086e-01,6.200305223464965820e-01,1.646625876426696777e+00,3.537537097930908203e+00,2.489699274301528931e-01,-2.125656127929687500e+00,-1.563030958175659180e+00,4.167484492063522339e-02,-3.644645214080810547e-02,-1.504980683326721191e+00,-7.060775160789489746e-01,-4.551956057548522949e-01,3.356358706951141357e-01,6.607118248939514160e-01,4.343110620975494385e-01
