-2.447288781404495239e-01,1.221157982945442200e-01,1.702854484319686890e-01,1.097895503044128418e-01,3.107036948204040527e-01,4.245726764202117920e-01,9.999865293502807617e-02,-5.670764446258544922e-01,-4.406865835189819336e-01,-2.041739374399185181e-01,-3.902508020401000977e-01,-3.172063529491424561e-01,-8.290871381759643555e-01,-1.068971827626228333e-01,3.623532354831695557e-01,3.830247223377227783e-01,3.095127344131469727e-01,4.687951803207397461e-01,-3.873906433582305908e-01,5.440454185009002686e-02,4.743491709232330322e-01,1.286143213510513306e-01,7.422742247581481934e-02,7.753557711839675903e-02,-1.078143358230590820e+00,-9.743757843971252441e-01,-4.769638776779174805e-01,-7.057955265045166016e-01,-2.028177492320537567e-02,2.633847594261169434e-01,-1.762796789407730103e-01,6.622456759214401245e-02,1.367176026105880737e-01,-3.477406799793243408e-01,-5.333029627799987793e-01,2.376855462789535522e-01,7.293657213449478149e-02,5.485978722572326660e-01,4.697721600532531738e-01,4.063082635402679443e-01,3.644669055938720703e-01,3.423292338848114014e-01,-3.614041805267333984e-01,-5.448370575904846191e-01,-3.228092789649963379e-01,3.450409471988677979e-01,2.109346985816955566e-01,3.033235073089599609e-01
9.364708513021469116e-02,1.355438679456710815e-01,7.999290525913238525e-02,4.943608343601226807e-01,-6.367545127868652344e-01,-7.147961854934692383e-01,-5.365118980407714844e-01,-5.017135739326477051e-01,2.401331961154937744e-01,-2.201701700687408447e-01,-4.726462960243225098e-01,-1.872892118990421295e-02,-1.807354539632797241e-01,-5.611414909362792969e-01,-5.133613944053649902e-01,-3.118525743484497070e-01,-6.161166429519653320e-01,-6.879571080207824707e-01,7.191415429115295410e-01,-2.708202004432678223e-01,-4.165594577789306641e-01,2.269847691059112549e-01,-7.839850783348083496e-01,-5.358775258064270020e-01,1.561054468154907227e+00,3.499132990837097168e-01,-4.530217349529266357e-01,7.206957936286926270e-01,-7.660070657730102539e-01,-7.510902881622314453e-01,3.299955129623413086e-01,3.732090443372726440e-02,7.823480665683746338e-02,1.128397658467292786e-01,6.701490879058837891e-01,-2.100987434387207031e-01,3.461376950144767761e-02,2.746778428554534912e-01,2.028138637542724609e-01,-7.571035623550415039e-01,1.313194930553436279e-01,-4.313913732767105103e-02,-2.750592119991779327e-02,-2.908881604671478271e-01,1.032502762973308563e-02,-3.973101675510406494e-01,-3.226811587810516357e-01,-1.989249587059020996e-01
-1.368172839283943176e-02,-4.314319491386413574e-01,-1.062323302030563354e-01,2.479526102542877197e-01,-1.470384001731872559e-01,2.050476968288421631e-01,-3.882989287376403809e-01,7.844197750091552734e-02,-7.441508024930953979e-02,-1.044001895934343338e-02,2.472146227955818176e-02,1.089474186301231384e-01,-2.391997277736663818e-01,-4.130220711231231689e-01,-3.463675081729888916e-01,-3.550312817096710205e-01,-7.378082871437072754e-01,-2.651351094245910645e-01,2.417708933353424072e-01,-3.704103827476501465e-01,-3.787212669849395752e-01,6.339251399040222168e-01,2.937434017658233643e-01,5.397009849548339844e-01,1.195223331451416016e+00,5.519297719001770020e-01,-6.294669955968856812e-02,-2.587597668170928955e-01,-9.629779458045959473e-01,-8.520945906639099121e-01,5.114442110061645508e-01,4.370897114276885986e-01,5.957418084144592285e-01,4.012892022728919983e-02,7.352258265018463135e-02,-2.176346480846405029e-01,3.845255449414253235e-02,-5.320486426353454590e-02,3.039880394935607910e-01,-2.209974080324172974e-01,2.858358919620513916e-01,1.041522979736328125e+00,-9.101337194442749023e-02,3.764007091522216797e-01,4.133704304695129395e-01,9.960018843412399292e-02,4.382946342229843140e-02,-2.078752517700195312e-01
4.654231481254100800e-03,-4.915569424629211426e-01,-8.243785500526428223e-01,-1.371562927961349487e-01,-2.862774580717086792e-02,-4.018490910530090332e-01,-1.945062875747680664e-01,9.340000338852405548e-03,6.954468488693237305e-01,-2.783035337924957275e-01,-5.852026343345642090e-01,-5.232334733009338379e-01,4.696892797946929932e-01,1.569756716489791870e-01,2.779124081134796143e-01,-1.931489855051040649e-01,1.360468268394470215e-01,-3.299653232097625732e-01,-3.667496144771575928e-01,-4.588225781917572021e-01,-7.586045265197753906e-01,-3.690564632415771484e-01,-1.248287186026573181e-01,-1.319133788347244263e-01,-7.622644901275634766e-01,2.229648381471633911e-01,8.981260657310485840e-01,-9.858796000480651855e-02,5.215846300125122070e-01,8.468672037124633789e-01,-3.756252527236938477e-01,-4.343374967575073242e-01,-6.264613270759582520e-01,2.099760770797729492e-01,-1.144194379448890686e-01,-3.786008059978485107e-01,5.658381804823875427e-02,5.228799581527709961e-02,5.705687403678894043e-01,-3.562114536762237549e-01,5.267302393913269043e-01,2.967470325529575348e-02,6.074434518814086914e-01,3.807896971702575684e-01,-9.380379319190979004e-02,4.483582079410552979e-01,1.523806601762771606e-01,-2.826393842697143555e-01
-3.780707120895385742e-01,-1.212405189871788025e-01,5.100557208061218262e-01,8.906981348991394043e-01,-4.061485528945922852e-01,2.180854603648185730e-02,-6.519621610641479492e-01,-6.898257136344909668e-01,-8.890543133020401001e-02,-5.497637391090393066e-01,-5.941619277000427246e-01,8.379050344228744507e-02,-7.313293963670730591e-02,-2.120536118745803833e-01,2.521248757839202881e-01,1.290156245231628418e+00,1.119027137756347656e+00,9.464722275733947754e-01,1.614020615816116333e-01,6.443709135055541992e-01,5.658984780311584473e-01,4.565168023109436035e-01,7.547219991683959961e-01,7.354649305343627930e-01,-8.908920288085937500e-01,-5.343845486640930176e-01,1.219785213470458984e-01,-9.027826786041259766e-02,1.876291036605834961e-01,4.050849378108978271e-01,-1.015900969505310059e+00,-4.602536857128143311e-01,7.270211726427078247e-02,-2.243365198373794556e-01,9.271627664566040039e-02,8.052741885185241699e-01,-8.428411483764648438e-01,-9.220692515373229980e-01,-4.687932729721069336e-01,2.002769708633422852e-01,-1.516691595315933228e-01,9.041842818260192871e-02,5.492784976959228516e-01,1.894669830799102783e-01,-1.435659229755401611e-01,2.249871641397476196e-01,1.263875365257263184e-01,-2.789797484874725342e-01
-2.066931575536727905e-01,-1.500867158174514771e-01,7.615786045789718628e-02,2.239349037408828735e-01,8.957608789205551147e-02,4.378773644566535950e-02,-4.131821990013122559e-01,2.847082316875457764e-01,7.676955461502075195e-01,-6.987171620130538940e-02,-1.466632187366485596e-01,2.054207026958465576e-01,-2.605169713497161865e-01,-5.378180146217346191e-01,-8.052684366703033447e-02,-5.154083669185638428e-02,-1.661655902862548828e-01,-8.617004752159118652e-02,3.494074642658233643e-01,4.844218492507934570e-02,-1.830279529094696045e-01,-1.996047943830490112e-01,-3.377997577190399170e-01,-1.355139911174774170e-01,1.268193006515502930e+00,8.514060378074645996e-01,4.824782907962799072e-02,7.240104675292968750e-01,-1.887381374835968018e-01,-9.125968217849731445e-01,2.751190364360809326e-01,-1.025953888893127441e-01,-3.366755843162536621e-01,3.224462270736694336e-01,3.893228471279144287e-01,-2.912013828754425049e-01,3.957755565643310547e-01,-3.430519402027130127e-01,-3.277536928653717041e-01,-2.003798820078372955e-02,-3.773136436939239502e-01,4.824713990092277527e-02,-4.602829739451408386e-02,-2.054039016366004944e-02,1.062468960881233215e-01,2.368689924478530884e-01,-7.157262414693832397e-02,-1.709515303373336792e-01
-1.038383096456527710e-01,-3.042624890804290771e-01,-2.427070774137973785e-02,2.424287199974060059e-01,3.397513926029205322e-02,1.526014953851699829e-01,-2.884927988052368164e-01,2.522863075137138367e-02,-4.287136793136596680e-01,-5.250086784362792969e-01,-7.513832766562700272e-03,1.274007558822631836e-01,-6.267625838518142700e-02,4.041703343391418457e-01,5.094775557518005371e-01,-7.558361887931823730e-01,-3.897045552730560303e-01,1.728224456310272217e-01,4.701383709907531738e-01,3.656164109706878662e-01,6.287765502929687500e-01,-5.706220269203186035e-01,-4.890635311603546143e-01,1.885559111833572388e-01,1.631490737199783325e-01,1.160980165004730225e-01,3.860456943511962891e-01,3.439451158046722412e-01,1.891276566311717033e-03,1.418469548225402832e-01,6.708397865295410156e-01,2.603601478040218353e-02,-2.105813473463058472e-01,-3.051466047763824463e-01,-4.773191809654235840e-01,-1.941769421100616455e-01,1.778220683336257935e-01,-2.878818213939666748e-01,-3.168181478977203369e-01,2.163476496934890747e-01,-6.495003402233123779e-02,8.746841549873352051e-02,1.635102033615112305e-01,1.150533333420753479e-01,6.071973443031311035e-01,3.751082420349121094e-01,-4.318012297153472900e-02,8.604355156421661377e-02
1.904000639915466309e-01,6.320552229881286621e-01,4.161286354064941406e-01,1.680141389369964600e-01,2.753166556358337402e-01,-3.792245090007781982e-01,5.541917085647583008e-01,2.400012314319610596e-01,2.079053372144699097e-01,1.075044989585876465e+00,6.579448580741882324e-01,4.601840972900390625e-01,-5.255939066410064697e-02,-4.276442229747772217e-01,-6.541101336479187012e-01,9.498261809349060059e-01,2.043170779943466187e-01,-7.101165652275085449e-01,1.954232901334762573e-01,3.186063095927238464e-02,-8.611361384391784668e-01,1.612942963838577271e-01,-5.430330056697130203e-03,-4.729069471359252930e-01,-5.750094056129455566e-01,-3.395828008651733398e-01,-4.329446852207183838e-01,-8.441648446023464203e-03,1.696796864271163940e-01,9.396997839212417603e-02,-4.004983007907867432e-01,-1.651681214570999146e-01,-1.312543898820877075e-01,-2.156816571950912476e-01,-1.694262325763702393e-01,1.535820811986923218e-01,-7.577800750732421875e-01,7.097704336047172546e-03,1.681751906871795654e-01,-3.320177495479583740e-01,3.724879920482635498e-01,-1.080759316682815552e-01,9.256270527839660645e-02,3.178341090679168701e-01,-1.017396748065948486e-01,-1.476862877607345581e-01,4.380610585212707520e-01,3.192417919635772705e-01
