-8.667345046997070312e-01,-3.807549476623535156e-01,-4.318694025278091431e-02,1.953278435394167900e-03,-2.114785462617874146e-02,-7.943608611822128296e-02,-1.412115544080734253e-01,-1.837364733219146729e-01,-2.356693148612976074e-01,1.439068317413330078e+00,9.684656262397766113e-01,5.465154647827148438e-01,3.819454014301300049e-01,3.129523396492004395e-01,3.162248730659484863e-01,3.412378132343292236e-01,3.612011671066284180e-01,3.862247765064239502e-01,-1.087711095809936523e+00,-9.463562369346618652e-01,-6.637175083160400391e-01,-3.911913931369781494e-01,-1.930408924818038940e-01,-7.819128036499023438e-02,-5.644012708216905594e-03,4.906667768955230713e-02,9.994504600763320923e-02
9.140486828982830048e-03,-6.551405787467956543e-02,-4.548423886299133301e-01,-4.712837338447570801e-01,-4.262341856956481934e-01,-4.070029556751251221e-01,-3.911648094654083252e-01,-3.722784519195556641e-01,-3.416649401187896729e-01,-3.611933290958404541e-01,-4.236097335815429688e-01,1.413480341434478760e-01,2.890524864196777344e-01,2.686221599578857422e-01,2.747818231582641602e-01,2.753566503524780273e-01,2.572306096553802490e-01,2.133021652698516846e-01,9.442135095596313477e-01,1.035221934318542480e+00,5.821264386177062988e-01,2.889161705970764160e-01,1.596348434686660767e-01,6.050256267189979553e-02,-1.564464904367923737e-02,-7.545042783021926880e-02,-8.007727563381195068e-02
-2.314880639314651489e-01,-5.680370330810546875e-01,-1.211031973361968994e-01,8.426511287689208984e-02,1.242911964654922485e-01,1.892967522144317627e-01,2.405832707881927490e-01,2.787925601005554199e-01,2.881433069705963135e-01,-4.972118735313415527e-01,6.361372303217649460e-03,-3.546904921531677246e-01,-4.920257925987243652e-01,-4.592713117599487305e-01,-4.853948950767517090e-01,-5.262874364852905273e-01,-5.553876757621765137e-01,-5.401470065116882324e-01,8.939604163169860840e-01,4.867604970932006836e-01,4.368649125099182129e-01,3.925739228725433350e-01,3.349553942680358887e-01,3.260736465454101562e-01,3.617463707923889160e-01,4.005385935306549072e-01,3.810849487781524658e-01
1.089081525802612305e+00,1.014307022094726562e+00,6.191322803497314453e-01,3.850654363632202148e-01,3.230908811092376709e-01,2.971423864364624023e-01,2.917926609516143799e-01,2.772222161293029785e-01,2.891902923583984375e-01,-5.806640982627868652e-01,-5.512174367904663086e-01,-3.331728279590606689e-01,-1.789718270301818848e-01,-1.223032549023628235e-01,-1.056119054555892944e-01,-9.030801057815551758e-02,-6.304492056369781494e-02,-5.938009545207023621e-02,-7.504636049270629883e-01,-5.756249427795410156e-01,-3.552740514278411865e-01,-2.902984619140625000e-01,-3.015493452548980713e-01,-3.083847463130950928e-01,-3.404578864574432373e-01,-3.741549253463745117e-01,-4.009525775909423828e-01
