-7.990229725837707520e-01,-2.228446006774902344e-01,-5.936824530363082886e-02,7.826775312423706055e-01,3.026671707630157471e-01,2.048459947109222412e-01,-1.044393658638000488e+00,-4.447792172431945801e-01,-3.730399012565612793e-01,5.457305908203125000e-01,3.130753710865974426e-02,-1.506516933441162109e-01,3.492431342601776123e-01,2.908080518245697021e-01,2.804468870162963867e-01,-1.339508891105651855e-01,-3.866088390350341797e-01,-5.264664292335510254e-01,8.343806862831115723e-01,3.055722117424011230e-01,2.299164086580276489e-01,-1.124980747699737549e-01,-9.394821524620056152e-02,2.995249815285205841e-04
8.581359386444091797e-01,3.672665059566497803e-01,3.119336366653442383e-01,-5.033571124076843262e-01,-2.351005189120769501e-02,-2.489320747554302216e-02,3.613890409469604492e-01,4.372035339474678040e-02,1.838003695011138916e-01,-9.128253459930419922e-01,-4.884990155696868896e-01,-4.001259505748748779e-01,-7.559919953346252441e-01,-5.356701612472534180e-01,-5.468348264694213867e-01,9.069021344184875488e-01,4.941563904285430908e-01,3.229447007179260254e-01,-3.945435285568237305e-01,-1.976657658815383911e-02,-9.453559666872024536e-02,5.872561931610107422e-01,2.251916229724884033e-01,6.426026672124862671e-02
-1.712540090084075928e-01,-5.593077465891838074e-02,-2.345925122499465942e-01,-4.764901101589202881e-02,-3.880116343498229980e-01,-3.055676817893981934e-01,9.472849965095520020e-01,7.787219882011413574e-01,4.347680509090423584e-01,4.504804313182830811e-01,4.389740526676177979e-01,6.296980977058410645e-01,5.987251996994018555e-01,2.450654208660125732e-01,2.271616309881210327e-01,-1.413796305656433105e+00,-3.398039937019348145e-01,2.417981922626495361e-01,-4.953058660030364990e-01,-5.433794856071472168e-01,-3.263882398605346680e-01,-1.150558352470397949e+00,-5.057672262191772461e-01,-3.079633116722106934e-01
