-1.714341640472412109e-01,2.072077058255672455e-02,1.518942862749099731e-01,-9.085952490568161011e-02,6.551787257194519043e-02,1.556243747472763062e-01,-1.536767184734344482e-01,5.215729027986526489e-02,1.520171016454696655e-01,-4.883390665054321289e-02,1.516266018152236938e-01,2.112626731395721436e-01,-2.850766777992248535e-01,-6.652891635894775391e-02,-2.315154671669006348e-02,-2.122941911220550537e-01,2.400971949100494385e-02,8.920800685882568359e-02,-5.504910275340080261e-02,1.068278998136520386e-01,1.532638520002365112e-01,-1.174771264195442200e-01,-6.976529955863952637e-02,-2.643471583724021912e-02,-2.826395630836486816e-01,6.524804513901472092e-03,2.039127200841903687e-01,-5.828500986099243164e-01,-2.681176364421844482e-01,-1.260400861501693726e-01,1.858180463314056396e-01,3.939835131168365479e-01,4.697502255439758301e-01,-3.327862322330474854e-01,-5.735083296895027161e-02,6.370199471712112427e-02,-2.329018432646989822e-03,2.380591779947280884e-01,3.068250119686126709e-01,-9.342470765113830566e-02,8.764743804931640625e-02,2.207794189453125000e-01,-1.794864684343338013e-01,1.220854278653860092e-02,1.105847433209419250e-01,-2.573726177215576172e-01,-1.516568590886890888e-04,1.162310168147087097e-01
2.348617464303970337e-01,-4.117276147007942200e-02,-2.437622547149658203e-01,-1.117864158004522324e-02,-2.073171585798263550e-01,-3.329851627349853516e-01,2.045689821243286133e-01,1.957904361188411713e-02,-7.686744630336761475e-02,1.048444882035255432e-01,-1.435990184545516968e-01,-2.671060860157012939e-01,2.943624556064605713e-01,-3.758949413895606995e-02,-2.333802431821823120e-01,3.692921698093414307e-01,-1.895546913146972656e-02,-2.638416290283203125e-01,2.163747549057006836e-01,-5.623685661703348160e-03,-1.423676162958145142e-01,1.850843802094459534e-02,4.860656801611185074e-03,2.215335611253976822e-03,2.437434643507003784e-01,5.985666066408157349e-02,-5.537749826908111572e-02,2.437155842781066895e-01,-5.156175792217254639e-02,-2.270165532827377319e-01,-6.810729950666427612e-02,-1.970235854387283325e-01,-2.412392944097518921e-01,2.321213632822036743e-01,7.575593888759613037e-02,1.832197047770023346e-02,4.154399409890174866e-02,-3.948409855365753174e-02,-5.436929687857627869e-02,3.549081832170486450e-02,7.276038080453872681e-02,4.420038312673568726e-02,1.825705170631408691e-02,-1.565919257700443268e-02,-5.433193221688270569e-02,2.070712894201278687e-01,1.001847386360168457e-01,2.931007929146289825e-02
-7.663145661354064941e-01,-3.333548009395599365e-01,-4.108082037419080734e-03,4.699042532593011856e-03,3.125077188014984131e-01,5.360594987869262695e-01,-1.894902586936950684e-01,3.473358973860740662e-02,1.993823349475860596e-01,-1.231343522667884827e-01,2.288944125175476074e-01,5.011506080627441406e-01,-4.056735336780548096e-01,6.089871749281883240e-02,4.736512601375579834e-01,-5.935156345367431641e-01,-6.248626857995986938e-02,4.181504547595977783e-01,-3.209275305271148682e-01,-3.632033616304397583e-02,2.139461189508438110e-01,7.722429931163787842e-02,1.273092627525329590e-01,1.527333259582519531e-01,-1.859212070703506470e-01,-3.131053224205970764e-02,9.530348330736160278e-02,-1.520543396472930908e-01,1.435938626527786255e-01,3.806564807891845703e-01,1.124149858951568604e-01,1.493377834558486938e-01,1.553159654140472412e-01,-7.257469743490219116e-02,-3.107240237295627594e-02,-2.169042453169822693e-02,9.333366155624389648e-02,-1.588677987456321716e-02,-7.483838498592376709e-02,2.102185338735580444e-01,-7.828231155872344971e-02,-1.939862221479415894e-01,2.022542208433151245e-01,5.198265239596366882e-02,-6.283778231590986252e-03,-8.901751786470413208e-02,-1.672457903623580933e-01,-1.837437748908996582e-01
4.845282062888145447e-02,-2.057810779660940170e-04,-1.855682767927646637e-02,1.699143052101135254e-01,7.911588251590728760e-02,4.389081150293350220e-02,6.261730939149856567e-02,-1.279304325580596924e-01,-2.087490558624267578e-01,3.068501129746437073e-02,-8.805965632200241089e-02,-6.496769934892654419e-02,2.285011559724807739e-01,1.423927545547485352e-01,2.455846369266510010e-01,5.045083910226821899e-02,-3.030063584446907043e-02,7.457271218299865723e-02,-5.183757841587066650e-02,-1.579282581806182861e-01,-1.285639256238937378e-01,1.818604916334152222e-01,1.075743138790130615e-01,4.706242308020591736e-02,2.516199648380279541e-01,-4.436497017741203308e-02,-2.447382509708404541e-01,6.483284831047058105e-01,3.942690491676330566e-01,3.196119964122772217e-01,-2.219734489917755127e-01,-4.596071243286132812e-01,-5.566211342811584473e-01,3.572202622890472412e-01,4.460005462169647217e-02,-1.017246693372726440e-01,5.323515459895133972e-02,-2.803335189819335938e-01,-3.859950006008148193e-01,1.650513559579849243e-01,-1.819032132625579834e-01,-3.821458816528320312e-01,2.924507558345794678e-01,-1.097375527024269104e-02,-1.569140851497650146e-01,2.734466493129730225e-01,-5.637940019369125366e-02,-1.870417147874832153e-01
-1.933123767375946045e-01,-2.364584654569625854e-01,-2.853233218193054199e-01,-7.282759761437773705e-04,-6.952358037233352661e-02,-1.351083070039749146e-01,6.722888350486755371e-02,-7.594664394855499268e-02,-1.555984318256378174e-01,-4.984641075134277344e-02,-1.649361103773117065e-01,-1.920065283775329590e-01,1.981652081012725830e-01,8.040529489517211914e-02,1.098562777042388916e-01,1.122929453849792480e-01,-1.940551772713661194e-02,2.314648590981960297e-03,-3.918444365262985229e-02,-1.359454095363616943e-01,-1.372270882129669189e-01,2.208556979894638062e-01,1.377220004796981812e-01,4.642313718795776367e-02,1.808977425098419189e-01,-1.245954781770706177e-01,-3.662537038326263428e-01,4.221249818801879883e-01,1.842334866523742676e-01,6.601582467555999756e-02,-3.000512719154357910e-01,-4.667055606842041016e-01,-5.614349842071533203e-01,2.540183961391448975e-01,1.483349502086639404e-02,-1.323716044425964355e-01,1.722887903451919556e-01,-7.938401401042938232e-02,-1.757440119981765747e-01,2.750012278556823730e-01,2.445613034069538116e-02,-1.311339437961578369e-01,1.572920829057693481e-01,-4.890942201018333435e-02,-1.428652107715606689e-01,2.675397694110870361e-01,4.167748615145683289e-02,-3.750700876116752625e-02
7.894838601350784302e-02,5.924500897526741028e-02,9.432347118854522705e-02,-3.045641481876373291e-01,-1.906403303146362305e-01,-1.051392331719398499e-01,-1.858705878257751465e-01,-2.773684635758399963e-02,7.269621640443801880e-02,1.097919568419456482e-01,2.020711153745651245e-01,2.586790025234222412e-01,1.340354532003402710e-01,1.948876976966857910e-01,1.608582437038421631e-01,3.678086996078491211e-01,4.185370504856109619e-01,3.531544208526611328e-01,1.234556064009666443e-01,1.436102688312530518e-01,1.583857983350753784e-01,-1.513500660657882690e-01,-1.952743679285049438e-01,-1.403572410345077515e-01,1.675536036491394043e-01,3.956527411937713623e-01,6.122079491615295410e-01,-4.984401464462280273e-01,-2.458537966012954712e-01,-6.455574184656143188e-02,-1.280149519443511963e-01,1.219910904765129089e-01,3.560664057731628418e-01,-4.373091161251068115e-01,-1.193859726190567017e-01,1.715756356716156006e-01,-5.250146985054016113e-01,-6.930681318044662476e-02,2.182173132896423340e-01,-3.858051300048828125e-01,3.921300638467073441e-03,2.115162461996078491e-01,-3.331318497657775879e-01,-6.535118818283081055e-02,1.287930756807327271e-01,-2.858136594295501709e-01,-1.824174635112285614e-02,1.723743528127670288e-01
5.151242017745971680e-01,1.696980595588684082e-01,-8.763697743415832520e-02,3.980002831667661667e-03,-2.485030740499496460e-01,-4.165896177291870117e-01,1.826715171337127686e-01,-2.132418192923069000e-02,-1.497473418712615967e-01,1.106647849082946777e-01,-1.854450106620788574e-01,-3.797672390937805176e-01,3.323868513107299805e-01,-5.409878492355346680e-02,-3.502646684646606445e-01,4.543849229812622070e-01,2.008493058383464813e-02,-3.313422799110412598e-01,2.600908875465393066e-01,1.732758246362209320e-02,-1.738036572933197021e-01,-3.493288904428482056e-02,-6.770270317792892456e-02,-8.586192131042480469e-02,1.913136243820190430e-01,3.733395412564277649e-02,-7.675400376319885254e-02,1.784187555313110352e-01,-9.799762070178985596e-02,-2.968398034572601318e-01,-8.684799075126647949e-02,-1.640996187925338745e-01,-1.926038414239883423e-01,1.317939758300781250e-01,4.437172785401344299e-02,8.937925100326538086e-03,-3.760639205574989319e-02,-7.036273833364248276e-03,1.615574955940246582e-02,-1.072628200054168701e-01,6.954878568649291992e-02,1.184668466448783875e-01,-9.946589171886444092e-02,-2.814595773816108704e-02,-1.474139001220464706e-02,1.257308572530746460e-01,1.287830024957656860e-01,1.044837757945060730e-01
2.466146945953369141e-01,1.199446916580200195e-01,1.778539270162582397e-02,-7.379227131605148315e-02,-1.311556547880172729e-01,-1.968151479959487915e-01,-1.105610802769660950e-01,-5.822703987360000610e-02,-8.064547926187515259e-02,3.264537826180458069e-02,2.996308729052543640e-02,-6.856153160333633423e-02,-4.541838914155960083e-02,-4.716656729578971863e-02,-2.040896117687225342e-01,1.564178615808486938e-01,1.737463474273681641e-01,3.763454500585794449e-03,5.243187397718429565e-02,9.842163324356079102e-02,2.962306700646877289e-02,-1.801354587078094482e-01,-1.444839090108871460e-01,-1.257150471210479736e-01,-8.901067823171615601e-02,7.701081037521362305e-02,1.646286845207214355e-01,-2.822743952274322510e-01,-1.707225143909454346e-01,-1.814668774604797363e-01,1.755819022655487061e-01,3.322848081588745117e-01,4.072612226009368896e-01,-2.314710468053817749e-01,-4.098453745245933533e-02,4.778991639614105225e-02,-4.971850216388702393e-01,-2.147046923637390137e-01,-1.188913509249687195e-01,-6.091575622558593750e-01,-2.769319713115692139e-01,-8.007866144180297852e-02,-2.309536933898925781e-01,2.182619459927082062e-02,1.755339354276657104e-01,-2.213828265666961670e-01,4.697791766375303268e-03,1.227329224348068237e-01
