1.397688865661621094e+00,8.909766674041748047e-01,3.592573404312133789e-01,2.513079904019832611e-02,-7.627690583467483521e-02,-9.758006781339645386e-02,-8.700706809759140015e-02,-4.025162756443023682e-02,3.647455200552940369e-02,-1.398600101470947266e+00,-1.029657244682312012e+00,-6.312321424484252930e-01,-2.981543838977813721e-01,-1.196441575884819031e-01,-1.793271861970424652e-02,6.032191589474678040e-02,1.029951050877571106e-01,1.250948905944824219e-01,8.780151605606079102e-01,6.812553405761718750e-01,4.935827255249023438e-01,2.472905963659286499e-01,5.240098387002944946e-02,-8.141726255416870117e-02,-2.020798474550247192e-01,-2.884554862976074219e-01,-3.661935925483703613e-01
-7.036110162734985352e-01,-8.083630800247192383e-01,-6.251773238182067871e-01,-3.861114680767059326e-01,-1.549228578805923462e-01,9.293287992477416992e-03,1.843619644641876221e-01,2.927350699901580811e-01,3.580953776836395264e-01,9.632467031478881836e-01,8.434835076332092285e-01,6.578052639961242676e-01,4.901565909385681152e-01,3.397659659385681152e-01,2.323590815067291260e-01,1.172621324658393860e-01,6.840922683477401733e-02,5.261134728789329529e-02,-8.968743085861206055e-01,-6.541913747787475586e-01,-3.695073127746582031e-01,-2.136718928813934326e-01,-1.097318306565284729e-01,-4.684109985828399658e-02,2.146424725651741028e-02,4.687067121267318726e-02,4.173529148101806641e-02
1.214616075158119202e-01,7.309181094169616699e-01,7.826685309410095215e-01,6.956009268760681152e-01,5.595667362213134766e-01,4.385948777198791504e-01,3.064443767070770264e-01,1.793905794620513916e-01,8.564772456884384155e-02,6.805712580680847168e-01,1.978758126497268677e-01,-1.624354533851146698e-02,-8.867479860782623291e-02,-1.050205156207084656e-01,-1.103003770112991333e-01,-6.992203742265701294e-02,-6.214199960231781006e-02,-6.789747625589370728e-02,-9.133486151695251465e-01,-6.580898761749267578e-01,-5.208237767219543457e-01,-4.044731557369232178e-01,-3.233809173107147217e-01,-2.487558722496032715e-01,-2.194352746009826660e-01,-1.659528762102127075e-01,-9.853324294090270996e-02
-8.155393004417419434e-01,-8.135327100753784180e-01,-5.167486071586608887e-01,-3.346202373504638672e-01,-3.283663392066955566e-01,-3.503082990646362305e-01,-4.037993550300598145e-01,-4.318738281726837158e-01,-4.802176654338836670e-01,-2.452178448438644409e-01,-1.170139387249946594e-02,-1.032987888902425766e-02,-1.033271029591560364e-01,-1.151012927293777466e-01,-1.041259616613388062e-01,-1.076620444655418396e-01,-1.092622578144073486e-01,-1.098087951540946960e-01,9.322078824043273926e-01,6.310254931449890137e-01,3.967484533786773682e-01,3.708540201187133789e-01,3.807117938995361328e-01,3.770140111446380615e-01,4.000507295131683350e-01,4.075374305248260498e-01,4.229914247989654541e-01
