-5.607271194458007812e-01,-3.104935586452484131e-01,4.851916059851646423e-02,1.416087865829467773e+00,6.006348133087158203e-01,2.620289027690887451e-01,-8.147863149642944336e-01,-4.817199707031250000e-01,-2.404034435749053955e-01,8.864765614271163940e-02,-2.501581013202667236e-01,-5.151966214179992676e-01,2.287281155586242676e-01,7.755136489868164062e-02,-1.461602747440338135e-01,-1.285329461097717285e+00,-5.019050240516662598e-01,-1.465347111225128174e-01,1.556948870420455933e-01,-8.537359535694122314e-02,-3.004506826400756836e-01,7.548249959945678711e-01,5.555045008659362793e-01,3.655276000499725342e-01
8.671919107437133789e-01,7.765270024538040161e-02,-3.869957625865936279e-01,-4.572365880012512207e-01,1.452938467264175415e-01,3.305970430374145508e-01,8.610905408859252930e-01,4.213084876537322998e-01,2.093593925237655640e-01,-6.605713367462158203e-01,-2.203328460454940796e-01,-8.126279339194297791e-03,-9.357356429100036621e-01,-3.077247440814971924e-01,5.513213202357292175e-02,5.187474489212036133e-01,-8.832702785730361938e-02,-3.006761670112609863e-01,-5.743068456649780273e-01,1.718152314424514771e-01,5.613369941711425781e-01,-4.268875122070312500e-01,5.935959890484809875e-02,3.431488275527954102e-01
-8.929284811019897461e-01,-7.237508147954940796e-02,2.774532437324523926e-01,-4.010086059570312500e-01,-5.963279604911804199e-01,-6.013609170913696289e-01,-5.163840055465698242e-01,-2.050536423921585083e-01,-1.236133873462677002e-01,8.371754288673400879e-01,5.056837797164916992e-01,4.039433002471923828e-01,1.159969925880432129e+00,4.386456310749053955e-01,1.221156269311904907e-01,1.606698483228683472e-01,3.809128403663635254e-01,4.072232842445373535e-01,8.892463445663452148e-01,5.729790404438972473e-02,-3.006729781627655029e-01,3.961138427257537842e-03,-4.521534740924835205e-01,-6.520633697509765625e-01
