1.807703614234924316e+00,1.965206265449523926e+00,8.894171714782714844e-01,5.464522838592529297e-01,6.760225892066955566e-01,-6.244010291993618011e-03,1.064039468765258789e-01,3.923033177852630615e-01,6.749322414398193359e-01,-2.483788877725601196e-01,-9.074859023094177246e-01,-3.266861140727996826e-01,-2.508744001388549805e-01,-3.343390524387359619e-01,-2.804451286792755127e-01,-2.175572961568832397e-01,2.473219931125640869e-01,1.241078451275825500e-01,-5.627947807312011719e+00,-4.093192100524902344e+00,-2.269150167703628540e-01,1.941587924957275391e-01,-1.218338757753372192e-01,7.749370932579040527e-01,8.224323987960815430e-01,1.530639827251434326e-01,-9.966780245304107666e-02
2.572504580020904541e-01,-1.519493699073791504e+00,-1.245479702949523926e+00,-1.088494062423706055e+00,-6.477654576301574707e-01,-1.835327744483947754e-01,7.202727794647216797e-01,-9.340067207813262939e-02,1.176398694515228271e-01,3.604768276214599609e+00,3.286731481552124023e+00,1.643366932868957520e+00,8.440181016921997070e-01,8.854262232780456543e-01,7.048279047012329102e-01,-1.549057662487030029e-01,1.358117461204528809e-01,5.750796794891357422e-01,1.226845383644104004e+00,2.249124526977539062e+00,-9.664589762687683105e-01,-1.705877780914306641e+00,-6.752036809921264648e-01,-5.797365903854370117e-01,-9.703070521354675293e-01,-2.921009361743927002e-01,-5.952850580215454102e-01
-2.201942205429077148e+00,-8.045266866683959961e-01,2.960292100906372070e-01,4.317111074924468994e-01,-1.515622586011886597e-01,-2.483055554330348969e-02,-9.082201719284057617e-01,-4.813192188739776611e-01,-5.435063838958740234e-01,-3.283082962036132812e+00,-2.387123107910156250e+00,-9.859501123428344727e-01,-5.727315545082092285e-01,-8.001838922500610352e-01,-3.927576243877410889e-01,2.219703495502471924e-01,-3.489352390170097351e-02,-1.015247702598571777e+00,4.443435668945312500e+00,2.066252946853637695e+00,1.259069681167602539e+00,1.546111345291137695e+00,8.645327687263488770e-01,-3.969681560993194580e-01,-1.454447209835052490e-01,3.850679099559783936e-01,4.497138261795043945e-01
