2.084385156631469727e-01,-1.834468692541122437e-01,-5.573158711194992065e-02,5.504557490348815918e-01,-7.437799125909805298e-02,1.805398799479007721e-02,3.745999932289123535e-01,-1.530749052762985229e-01,5.000188946723937988e-01,1.780875027179718018e-01,-7.861075550317764282e-02,3.326122649013996124e-03,-1.258114427328109741e-01,-5.991563573479652405e-02,3.643904924392700195e-01,4.226166009902954102e-02,-1.041962020099163055e-02,-8.645051717758178711e-02,-8.944658637046813965e-01,-4.440966844558715820e-01,-5.682656168937683105e-01,-1.102665662765502930e-01,1.191567629575729370e-01,6.800347566604614258e-02,1.143429279327392578e-01,5.497493781149387360e-03,2.393731623888015747e-01,4.514247775077819824e-01,-8.211127482354640961e-03,-1.178914960473775864e-02,-9.627041220664978027e-01,5.481417756527662277e-04,5.509923100471496582e-01,-6.417393684387207031e-01,5.001107603311538696e-02,-8.933746814727783203e-02,-1.876820623874664307e-01,2.341277152299880981e-01,1.205611974000930786e-01,-4.468694031238555908e-01,-2.310455031692981720e-02,-1.879663318395614624e-01,-9.346023201942443848e-02,2.139372378587722778e-01,3.571195304393768311e-01,-1.298890560865402222e-01,-1.605254411697387695e-01,-6.205919384956359863e-02
2.175602167844772339e-01,-7.732711434364318848e-01,5.589372012764215469e-03,1.852933615446090698e-01,-5.006489157676696777e-01,1.209039092063903809e-01,-7.630204558372497559e-01,-6.067180633544921875e-01,9.772533774375915527e-01,-3.167679309844970703e-01,-4.498623013496398926e-01,-4.121040701866149902e-01,-1.471657902002334595e-01,1.410393714904785156e-01,7.554017305374145508e-01,-1.234569549560546875e+00,-2.564188838005065918e-01,4.968096315860748291e-01,6.051511168479919434e-01,6.362916231155395508e-01,2.590588033199310303e-01,3.990208804607391357e-01,3.104212507605552673e-02,-5.280281305313110352e-01,1.284664034843444824e+00,1.446725487709045410e+00,-4.087098538875579834e-01,3.324871957302093506e-01,-1.185221523046493530e-01,-7.185317277908325195e-01,4.510382562875747681e-02,-5.531229376792907715e-01,-3.156721591949462891e-01,-2.891580015420913696e-02,4.562203288078308105e-01,2.147555723786354065e-02,-5.316757410764694214e-02,-5.563527345657348633e-01,2.352161854505538940e-01,-1.798521131277084351e-01,-2.075917869806289673e-01,5.071557313203811646e-02,5.547852516174316406e-01,-4.711021780967712402e-01,6.055778264999389648e-01,6.000594496726989746e-01,1.805627942085266113e-01,9.961536526679992676e-01
-5.586110427975654602e-02,-3.937376439571380615e-01,2.328036874532699585e-01,-1.771821081638336182e-01,-8.183849453926086426e-01,-6.773213744163513184e-01,-2.349618077278137207e-01,3.991748094558715820e-01,1.067803978919982910e+00,-7.777966558933258057e-02,-6.631008982658386230e-01,-5.217178463935852051e-01,8.468575477600097656e-01,1.836515069007873535e-01,2.106678485870361328e-01,6.351594328880310059e-01,1.685079932212829590e-01,-3.976494669914245605e-01,5.192283391952514648e-01,1.798719465732574463e-01,2.642382085323333740e-01,1.001336932182312012e+00,4.994027614593505859e-01,-1.046624630689620972e-01,-4.920161366462707520e-01,-5.899353623390197754e-01,-3.205798566341400146e-01,-6.804372668266296387e-01,-9.428434967994689941e-01,-7.178350090980529785e-01,9.156752824783325195e-01,5.096103549003601074e-01,5.150404572486877441e-01,6.988225877285003662e-02,1.103775650262832642e-01,-1.413840204477310181e-01,-9.075464680790901184e-03,-4.745134711265563965e-01,2.866348624229431152e-02,2.812213897705078125e-01,2.480602860450744629e-01,1.819012016057968140e-01,5.659700632095336914e-01,3.162572532892227173e-02,-1.269186735153198242e-01,-8.223505318164825439e-02,1.724695861339569092e-01,2.769932150840759277e-01
9.030858278274536133e-01,3.141407072544097900e-01,-1.109864786267280579e-01,-1.374184191226959229e-01,-1.278272420167922974e-01,-7.837773859500885010e-02,-1.180498003959655762e+00,7.996416091918945312e-01,9.347064495086669922e-01,-2.725819349288940430e-01,1.145917624235153198e-01,-7.344389557838439941e-01,-3.690577447414398193e-01,3.995489180088043213e-01,9.053105488419532776e-03,-6.205559372901916504e-01,-4.660165905952453613e-01,-5.014552548527717590e-02,2.661231756210327148e-01,1.078181192278862000e-01,-5.042909979820251465e-01,2.598157525062561035e-01,1.209493167698383331e-02,-9.061728715896606445e-01,-3.697657883167266846e-01,7.179489731788635254e-02,-1.105221584439277649e-01,-1.403962820768356323e-01,4.961329996585845947e-01,6.921824216842651367e-01,1.005624175071716309e+00,7.730242013931274414e-01,5.074923634529113770e-01,-2.364869862794876099e-01,1.361657083034515381e-01,-2.986245155334472656e-01,5.646544042974710464e-03,3.545169830322265625e-01,5.676235556602478027e-01,4.478287100791931152e-01,1.163696572184562683e-01,-2.394361346960067749e-01,-2.782856225967407227e-01,2.661190629005432129e-01,-1.305126845836639404e-01,-4.019278883934020996e-01,-1.403295099735260010e-01,-3.511286079883575439e-01
5.671738982200622559e-01,7.098402082920074463e-02,2.449969500303268433e-01,5.721740722656250000e-01,2.155822813510894775e-01,-5.940860509872436523e-01,3.736505806446075439e-01,-4.535532742738723755e-02,-3.240841329097747803e-01,8.932201564311981201e-02,1.884624809026718140e-01,3.944080173969268799e-01,2.429376840591430664e-01,6.380342245101928711e-01,5.186756253242492676e-01,-2.444771118462085724e-02,-3.328969478607177734e-01,-3.476787805557250977e-01,-2.029847949743270874e-01,6.002238392829895020e-02,3.715113103389739990e-01,4.609414637088775635e-01,5.020672678947448730e-01,6.116244196891784668e-01,-1.311902552843093872e-01,-3.379306793212890625e-01,-2.025665491819381714e-01,-7.232699394226074219e-01,-5.577601194381713867e-01,2.203986644744873047e-01,-1.165107488632202148e+00,4.395129904150962830e-02,1.137900710105895996e+00,-7.511973381042480469e-01,-1.519971936941146851e-01,3.795893490314483643e-01,-6.400604248046875000e-01,-2.701354920864105225e-01,3.848720788955688477e-01,-6.336699128150939941e-01,-5.199875831604003906e-01,-8.725333213806152344e-02,-4.291299879550933838e-01,1.429324746131896973e-01,5.130957961082458496e-01,-9.646395221352577209e-03,-9.962474554777145386e-02,-2.528245449066162109e-01
-5.741712450981140137e-01,-1.026277095079421997e-01,-9.936685860157012939e-02,4.750519692897796631e-01,5.044629424810409546e-02,2.591040730476379395e-01,9.953557848930358887e-01,1.601088643074035645e-01,1.479503363370895386e-01,-3.611174523830413818e-01,5.672133341431617737e-02,-3.531884253025054932e-01,1.476783156394958496e-01,2.153661549091339111e-01,7.024639248847961426e-01,-4.069050252437591553e-01,-1.412575691938400269e-02,2.941829264163970947e-01,-6.703760027885437012e-01,-5.026355981826782227e-01,-1.315711066126823425e-02,-1.053514599800109863e+00,-5.302177667617797852e-01,2.561622560024261475e-01,-4.548640251159667969e-01,-9.738241136074066162e-02,8.302439451217651367e-01,-1.672721356153488159e-01,3.491595685482025146e-01,6.720376759767532349e-02,-5.272795557975769043e-01,4.265388008207082748e-03,-1.361669152975082397e-01,-1.387857645750045776e-01,2.416055835783481598e-02,4.383504688739776611e-01,-5.703208222985267639e-02,1.672396808862686157e-01,1.755813360214233398e-01,7.626045495271682739e-02,2.844345867633819580e-01,-1.174537986516952515e-01,1.149996891617774963e-01,3.854541778564453125e-01,1.145723462104797363e-01,-5.266550183296203613e-01,3.507170826196670532e-02,1.236043125391006470e-01
2.105349153280258179e-01,1.266898959875106812e-01,6.897593140602111816e-01,1.201520934700965881e-01,-3.573441505432128906e-01,-3.968049287796020508e-01,2.790260910987854004e-01,-7.938060164451599121e-01,-1.383545845746994019e-01,-4.459846317768096924e-01,-9.027832746505737305e-01,2.497812658548355103e-01,7.428763508796691895e-01,-7.792092114686965942e-02,6.961395144462585449e-01,7.312277555465698242e-01,2.483575195074081421e-01,2.637406885623931885e-01,1.202960149385035038e-03,1.848649531602859497e-01,7.289939522743225098e-01,-4.102995395660400391e-01,3.853668272495269775e-01,5.191983580589294434e-01,2.586307227611541748e-01,-6.446036100387573242e-01,-7.534280419349670410e-01,6.060750484466552734e-01,2.717805504798889160e-01,3.333073481917381287e-02,-1.258003950119018555e+00,-5.057737231254577637e-01,1.799303665757179260e-02,-1.141329258680343628e-01,4.092384874820709229e-02,2.642830312252044678e-01,-1.996556296944618225e-02,3.633304834365844727e-01,9.291635826230049133e-03,-7.926587462425231934e-01,-2.768208384513854980e-01,3.750878572463989258e-02,-4.735608100891113281e-01,1.302172839641571045e-01,5.956879258155822754e-01,-2.882459461688995361e-01,-1.976307183504104614e-01,1.917350590229034424e-01
-6.952340006828308105e-01,8.770852088928222656e-01,-4.505190253257751465e-02,-7.689273357391357422e-01,-3.078736066818237305e-01,2.321438193321228027e-01,9.293437600135803223e-01,2.936842143535614014e-01,2.671884894371032715e-01,-3.118597436696290970e-03,1.403970718383789062e-01,3.312129676342010498e-01,-1.326827108860015869e-01,2.888415753841400146e-02,-3.126020729541778564e-01,1.914633661508560181e-01,-5.390661358833312988e-01,-8.521873354911804199e-01,1.889228969812393188e-01,-1.358502060174942017e-01,-1.981374919414520264e-01,-1.341852396726608276e-01,6.123378276824951172e-01,1.115200281143188477e+00,-1.248068928718566895e+00,-2.395630776882171631e-01,6.917276978492736816e-01,-1.063564658164978027e+00,7.760183811187744141e-01,1.243135690689086914e+00,-7.178968191146850586e-01,1.089844703674316406e-01,-1.152808591723442078e-01,2.080270498991012573e-01,1.306918114423751831e-01,-2.810499966144561768e-01,1.175597757101058960e-01,1.603117287158966064e-01,-4.239454865455627441e-01,2.316793799400329590e-01,5.010679364204406738e-02,-6.276437640190124512e-01,6.525329351425170898e-01,4.673563539981842041e-01,2.795352339744567871e-01,5.289167910814285278e-02,2.614771723747253418e-01,3.600752949714660645e-01
