9.426070451736450195e-01,-9.960948675870895386e-02,5.115338787436485291e-02,-2.351450681686401367e+00,-3.948810398578643799e-01,1.329336613416671753e-01,9.254231452941894531e-01,1.396586894989013672e-01,-1.026809141039848328e-01,-1.135194897651672363e+00,2.383351624011993408e-01,3.417197763919830322e-01,5.882883071899414062e-01,1.953051388263702393e-01,-3.822517991065979004e-01,7.587750256061553955e-02,2.649142444133758545e-01,4.020857512950897217e-01,1.144687294960021973e+00,1.107873511500656605e-03,-7.756950259208679199e-01,1.211317658424377441e+00,4.441630244255065918e-01,1.879991739988327026e-01
-1.729583740234375000e+00,-3.851801156997680664e-01,-1.351159065961837769e-01,-1.627917051315307617e+00,4.888115525245666504e-01,-4.644836187362670898e-01,-4.376147985458374023e-01,-2.111164331436157227e+00,9.503533244132995605e-01,2.843920141458511353e-02,-1.815567255020141602e+00,-1.372747182846069336e+00,-1.666839122772216797e+00,-1.628994226455688477e+00,-1.162493109703063965e+00,1.166107177734375000e+00,1.205242753028869629e+00,6.483306884765625000e-01,-1.023313522338867188e+00,1.840279698371887207e+00,7.637413144111633301e-01,2.072170019149780273e+00,2.832118570804595947e-01,1.122402667999267578e+00
-6.831287145614624023e-01,-1.736567616462707520e-01,-6.874323487281799316e-01,3.527288913726806641e+00,8.823089003562927246e-01,-2.486466802656650543e-02,1.933220028877258301e+00,-7.129263281822204590e-01,-1.296492218971252441e+00,2.711282730102539062e+00,3.423343002796173096e-01,-1.545034646987915039e-01,-5.318973660469055176e-01,6.997467279434204102e-01,5.477970242500305176e-01,-1.854849576950073242e+00,5.881243944168090820e-01,-1.126029253005981445e+00,-2.896948575973510742e+00,-4.450493156909942627e-01,8.849483728408813477e-01,-2.520957708358764648e+00,8.951302170753479004e-01,2.936536967754364014e-01
