-5.185477733612060547e-01,-1.663947254419326782e-01,7.270312309265136719e-02,8.841748237609863281e-01,3.506791293621063232e-01,1.717655807733535767e-01,-1.225828647613525391e+00,-6.291055083274841309e-01,-3.287101686000823975e-01,1.025086864829063416e-01,-2.486370950937271118e-01,-4.517945945262908936e-01,-5.816462635993957520e-01,-1.391928046941757202e-01,-4.006326571106910706e-02,1.156480550765991211e+00,7.162677049636840820e-01,4.286668300628662109e-01,6.420279145240783691e-01,2.217587530612945557e-01,7.550114393234252930e-02,-1.357607096433639526e-01,-4.029488563537597656e-02,5.495712906122207642e-02
-1.180655837059020996e+00,-4.733199477195739746e-01,-2.471414953470230103e-01,-1.354023367166519165e-01,-2.593562006950378418e-01,1.511099375784397125e-02,-1.363061517477035522e-01,4.499286115169525146e-01,5.114076137542724609e-01,1.034780025482177734e+00,5.279290676116943359e-01,3.467212617397308350e-01,6.121860146522521973e-01,5.993213057518005371e-01,2.344070076942443848e-01,4.113396108150482178e-01,-3.689723312854766846e-01,-5.562865138053894043e-01,7.088556140661239624e-02,1.403886242769658566e-03,2.570879757404327393e-01,-1.427694559097290039e+00,-6.109520196914672852e-01,-1.596545875072479248e-01
2.654341161251068115e-01,2.657131850719451904e-01,2.528465688228607178e-01,-9.485715031623840332e-01,-4.686858355998992920e-01,-4.932700395584106445e-01,-3.878162801265716553e-02,-2.751319706439971924e-01,-1.832549870014190674e-01,-1.663997322320938110e-01,-4.174238815903663635e-02,1.004888042807579041e-01,8.282507658004760742e-01,3.391117155551910400e-01,3.550398647785186768e-01,4.014648199081420898e-01,4.021640419960021973e-01,2.946689128875732422e-01,-1.091332674026489258e+00,-6.080703139305114746e-01,-5.818508863449096680e-01,4.474216401576995850e-01,4.001115858554840088e-01,3.891073167324066162e-01
