-1.248851895332336426e+00,-6.048974990844726562e-01,-7.642015814781188965e-02,1.372466981410980225e-01,1.759437024593353271e-01,2.003498822450637817e-01,2.040572911500930786e-01,1.903344243764877319e-01,1.519102305173873901e-01,-1.310206651687622070e+00,-1.078678131103515625e+00,-7.233003973960876465e-01,-4.426669180393218994e-01,-2.627786695957183838e-01,-1.400008797645568848e-01,-4.684110358357429504e-02,1.244209147989749908e-02,5.671194940805435181e-02,9.458435773849487305e-01,6.219678521156311035e-01,3.608199954032897949e-01,3.003393709659576416e-01,3.396319746971130371e-01,3.859946429729461670e-01,4.275149703025817871e-01,4.678604006767272949e-01,5.136668682098388672e-01
9.717187285423278809e-01,8.187635540962219238e-01,3.435909450054168701e-01,7.877922803163528442e-02,-8.854581415653228760e-02,-2.333739250898361206e-01,-3.926815688610076904e-01,-5.208223462104797363e-01,-5.841025114059448242e-01,9.405745267868041992e-01,7.182233929634094238e-01,2.060974389314651489e-01,-7.557131350040435791e-02,-1.807413846254348755e-01,-2.575445175170898438e-01,-3.445666432380676270e-01,-4.326840639114379883e-01,-4.684995412826538086e-01,2.782559692859649658e-01,1.147447824478149414e-01,2.585664093494415283e-01,2.284266650676727295e-01,1.695212274789810181e-01,1.291651427745819092e-01,1.318195760250091553e-01,1.409122794866561890e-01,1.145444065332412720e-01
-3.266995847225189209e-01,-8.760833144187927246e-01,-7.785701751708984375e-01,-5.987550020217895508e-01,-4.480765759944915771e-01,-3.393459618091583252e-01,-2.309507429599761963e-01,-1.548355519771575928e-01,-1.140515431761741638e-01,9.648268818855285645e-01,7.418861985206604004e-01,6.633591055870056152e-01,5.924707055091857910e-01,5.161004662513732910e-01,4.692776501178741455e-01,4.719587862491607666e-01,4.680226147174835205e-01,4.330621659755706787e-01,-2.273152172565460205e-01,1.752146482467651367e-01,1.105967909097671509e-02,-1.043555215001106262e-01,-1.652762740850448608e-01,-2.174758315086364746e-01,-2.714947462081909180e-01,-3.069434165954589844e-01,-3.360481858253479004e-01
6.038325428962707520e-01,6.622170805931091309e-01,5.113995075225830078e-01,3.827289044857025146e-01,3.606794178485870361e-01,3.723700046539306641e-01,4.195749759674072266e-01,4.853234291076660156e-01,5.462441444396972656e-01,-5.951952934265136719e-01,-3.814313113689422607e-01,-1.461565941572189331e-01,-7.423211634159088135e-02,-7.258028537034988403e-02,-7.173292338848114014e-02,-8.055133372545242310e-02,-4.778046160936355591e-02,-2.127414941787719727e-02,-9.967841506004333496e-01,-9.119271039962768555e-01,-6.304461956024169922e-01,-4.244106411933898926e-01,-3.438775539398193359e-01,-2.976837754249572754e-01,-2.878399193286895752e-01,-3.018294572830200195e-01,-2.921640276908874512e-01
