4.062817692756652832e-01,3.391667008399963379e-01,3.720203042030334473e-01,6.213076785206794739e-02,5.727165564894676208e-02,1.282732933759689331e-01,-2.521466836333274841e-02,2.955820783972740173e-02,1.098456680774688721e-01,1.531965285539627075e-02,1.689812727272510529e-02,1.349707506597042084e-02,-1.964438408613204956e-01,-1.896839290857315063e-01,-2.588442862033843994e-01,1.450305283069610596e-01,1.833063960075378418e-01,8.351499587297439575e-02,1.259498596191406250e-01,1.798079013824462891e-01,1.458956152200698853e-01,-2.685015201568603516e-01,-2.696278393268585205e-01,-2.523659169673919678e-01,-1.962458342313766479e-01,1.399465557187795639e-02,1.947142481803894043e-01,-2.483125776052474976e-01,-1.405319273471832275e-01,-8.674851059913635254e-02,1.319932639598846436e-01,2.493835538625717163e-01,3.434665501117706299e-01,-2.805813550949096680e-01,-9.728100150823593140e-02,4.548168927431106567e-02,-1.293838918209075928e-01,1.587785333395004272e-01,2.641341388225555420e-01,-5.143887400627136230e-01,-1.251078546047210693e-01,5.593663454055786133e-02,-3.744436502456665039e-01,-8.267702162265777588e-02,7.510969787836074829e-02,-3.327343463897705078e-01,-3.216481208801269531e-02,1.391236782073974609e-01
3.829728960990905762e-01,1.103950813412666321e-01,-1.236282885074615479e-01,7.724560797214508057e-02,-1.770214885473251343e-01,-3.898286521434783936e-01,1.303715258836746216e-01,-7.402032613754272461e-02,-2.170016020536422729e-01,1.683361083269119263e-01,-1.269696056842803955e-01,-3.338932693004608154e-01,3.244886696338653564e-01,-5.087075382471084595e-02,-3.289247155189514160e-01,4.312535822391510010e-01,2.062493003904819489e-02,-2.430483549833297729e-01,2.771563231945037842e-01,-2.416583336889743805e-02,-2.279392629861831665e-01,3.115514516830444336e-01,5.372613295912742615e-02,-1.739683002233505249e-01,2.295519113540649414e-01,-5.868395045399665833e-02,-2.411435395479202271e-01,1.247460320591926575e-01,-1.124146655201911926e-01,-2.307010442018508911e-01,1.964938044548034668e-01,-4.235968366265296936e-02,-1.866386234760284424e-01,2.349246293306350708e-01,-6.724136322736740112e-02,-2.410728633403778076e-01,5.278972536325454712e-02,-1.394388079643249512e-01,-2.299174666404724121e-01,2.678206562995910645e-01,5.005301907658576965e-02,-7.779566198587417603e-02,1.167731657624244690e-01,-6.707531213760375977e-02,-1.546277552843093872e-01,2.632036209106445312e-01,9.658226743340492249e-03,-1.243997812271118164e-01
2.049285545945167542e-02,1.459358185529708862e-01,2.825625240802764893e-01,-4.658711701631546021e-02,8.070730417966842651e-02,1.976879090070724487e-01,-1.724282503128051758e-01,-5.592492222785949707e-02,4.792772233486175537e-02,-2.240821868181228638e-01,-9.588503837585449219e-02,-1.289166044443845749e-03,-1.402094215154647827e-01,9.934727102518081665e-02,2.954460978507995605e-01,-1.558900475502014160e-01,1.415731906890869141e-01,3.198477923870086670e-01,-1.458320617675781250e-01,1.706253737211227417e-02,1.551726311445236206e-01,-9.890383481979370117e-02,-6.222068797796964645e-03,1.429918557405471802e-01,-9.518622606992721558e-02,5.297018587589263916e-02,1.457216739654541016e-01,5.144577622413635254e-01,4.798048436641693115e-01,4.225554764270782471e-01,-5.747091174125671387e-01,-4.994065165519714355e-01,-4.218252599239349365e-01,-1.874688118696212769e-01,-3.416620939970016479e-02,7.012236863374710083e-02,-9.269525855779647827e-02,-1.914510875940322876e-02,1.490748301148414612e-02,-4.373687803745269775e-01,-1.722481995820999146e-01,1.618732325732707977e-02,-7.290504127740859985e-02,8.134980499744415283e-02,2.118925005197525024e-01,-1.869179904460906982e-01,1.419437583535909653e-02,1.899365335702896118e-01
-2.295553982257843018e-01,-1.040858328342437744e-01,-3.633126616477966309e-02,3.297108039259910583e-02,1.123886033892631531e-01,1.586538404226303101e-01,6.261266022920608521e-02,6.356527656316757202e-02,8.499893546104431152e-02,-6.154744327068328857e-02,-1.488637272268533707e-02,6.682665646076202393e-02,4.944346100091934204e-02,1.091117560863494873e-01,2.495901286602020264e-01,-1.257395595312118530e-01,-1.302998363971710205e-01,-3.182893153280019760e-03,-3.201259672641754150e-02,-6.029951572418212891e-02,2.928040921688079834e-04,1.476245224475860596e-01,2.025785297155380249e-01,2.434419989585876465e-01,3.464892134070396423e-02,-7.693369686603546143e-02,-1.868774294853210449e-01,2.808628082275390625e-01,1.785824447870254517e-01,1.394072473049163818e-01,-3.188194632530212402e-01,-3.915660679340362549e-01,-4.278742671012878418e-01,2.042664140462875366e-01,1.061884462833404541e-01,3.445799648761749268e-02,3.948784470558166504e-01,1.816941201686859131e-01,8.893743902444839478e-02,4.497994780540466309e-01,2.385177910327911377e-01,1.144850701093673706e-01,2.367308437824249268e-01,3.157180547714233398e-02,-1.091259941458702087e-01,2.088924944400787354e-01,3.961031883955001831e-02,-7.139492034912109375e-02
-5.009368658065795898e-01,-1.886633187532424927e-01,5.116187036037445068e-02,-1.217209324240684509e-01,1.471000909805297852e-01,3.294254839420318604e-01,-8.002019673585891724e-02,1.069713905453681946e-01,2.262871563434600830e-01,-1.562657356262207031e-01,1.436114460229873657e-01,3.578629791736602783e-01,-2.492227852344512939e-01,1.424593180418014526e-01,4.750902354717254639e-01,-4.962654113769531250e-01,-6.860733777284622192e-02,2.809953689575195312e-01,-3.899566829204559326e-01,-8.924795687198638916e-02,1.596833020448684692e-01,-1.630849689245223999e-01,7.711599022150039673e-02,2.627114355564117432e-01,-1.816943734884262085e-01,-4.958041012287139893e-03,9.210685640573501587e-02,-5.128217488527297974e-02,1.234938055276870728e-01,2.304341346025466919e-01,-2.047827988862991333e-01,-6.423447281122207642e-02,3.116856887936592102e-02,-3.521269187331199646e-02,1.095171943306922913e-01,2.048201858997344971e-01,1.218700315803289413e-02,2.621379494667053223e-02,6.041771546006202698e-02,-4.819279536604881287e-02,-8.476375043392181396e-02,-8.943747729063034058e-02,3.833674266934394836e-02,3.551384806632995605e-02,3.881491348147392273e-02,-1.248173266649246216e-01,-9.307981282472610474e-02,-6.952504813671112061e-02
-2.507050633430480957e-01,-2.665473818778991699e-01,-3.255430459976196289e-01,-3.584062680602073669e-02,-7.243739068508148193e-02,-1.319989264011383057e-01,1.048501729965209961e-01,5.263961479067802429e-02,-8.975276723504066467e-03,1.279355287551879883e-01,9.889449179172515869e-02,7.285236567258834839e-02,2.748713083565235138e-02,-9.391420334577560425e-02,-1.908129006624221802e-01,-3.203043714165687561e-03,-1.743176728487014771e-01,-2.490578591823577881e-01,4.567913338541984558e-02,-1.828769780695438385e-02,-7.758989185094833374e-02,3.980546444654464722e-02,3.603344410657882690e-02,-4.191761836409568787e-02,-6.586512550711631775e-03,-7.041218876838684082e-02,-1.142721101641654968e-01,-5.686935186386108398e-01,-4.588425159454345703e-01,-3.622013628482818604e-01,5.765627026557922363e-01,5.404899120330810547e-01,4.747901856899261475e-01,1.789783537387847900e-01,7.015220820903778076e-02,-2.538623102009296417e-02,2.012083828449249268e-01,1.193272620439529419e-01,6.482207775115966797e-02,5.176598429679870605e-01,2.182326912879943848e-01,9.381201118230819702e-03,1.433135718107223511e-01,-1.811004988849163055e-02,-1.646607667207717896e-01,1.220209226012229919e-01,-6.825759261846542358e-02,-2.474541813135147095e-01
3.369357585906982422e-01,9.344694763422012329e-02,-1.120125055313110352e-01,7.024729996919631958e-02,-1.738553196191787720e-01,-3.719919025897979736e-01,1.159306168556213379e-01,-9.550419449806213379e-02,-2.320540547370910645e-01,1.182228252291679382e-01,-1.673490256071090698e-01,-3.588331937789916992e-01,3.182352781295776367e-01,-2.534302417188882828e-03,-2.149794548749923706e-01,3.821747004985809326e-01,4.539440199732780457e-02,-1.479197293519973755e-01,2.172867655754089355e-01,-5.079039186239242554e-02,-2.082131654024124146e-01,3.591128885746002197e-01,1.095605343580245972e-01,-9.622327983379364014e-02,2.096462398767471313e-01,-1.017466709017753601e-01,-3.069838583469390869e-01,3.582493066787719727e-01,6.996338814496994019e-02,-8.222124725580215454e-02,1.910922303795814514e-02,-2.406531721353530884e-01,-3.936744928359985352e-01,3.072801530361175537e-01,-1.894863136112689972e-02,-2.152530401945114136e-01,1.142382472753524780e-01,-1.333462744951248169e-01,-2.501782476902008057e-01,2.179300934076309204e-01,-3.585865255445241928e-03,-1.228902861475944519e-01,1.356580555438995361e-01,-6.676498800516128540e-02,-1.577857881784439087e-01,2.535031437873840332e-01,-1.893236860632896423e-02,-1.537206768989562988e-01
5.606823787093162537e-02,4.345059022307395935e-02,9.753175079822540283e-02,-2.881942987442016602e-01,-2.053894251585006714e-01,-1.082130596041679382e-01,-1.952193379402160645e-01,-4.594179987907409668e-02,6.958082318305969238e-02,7.889990508556365967e-02,1.553854644298553467e-01,2.097698003053665161e-01,6.242447718977928162e-02,8.353897184133529663e-02,4.917455092072486877e-02,3.328397274017333984e-01,3.511135578155517578e-01,2.571865618228912354e-01,1.831654459238052368e-01,2.217735201120376587e-01,1.934871077537536621e-01,-9.839366376399993896e-02,-1.538186222314834595e-01,-1.785678565502166748e-01,1.451172083616256714e-01,3.294480741024017334e-01,4.992151260375976562e-01,-5.570544600486755371e-01,-3.157202303409576416e-01,-1.581431329250335693e-01,-3.803421556949615479e-02,1.880163550376892090e-01,3.760242760181427002e-01,-4.815502464771270752e-01,-1.976915746927261353e-01,6.240331009030342102e-02,-5.010722279548645020e-01,-1.212546601891517639e-01,1.166373789310455322e-01,-2.469596117734909058e-01,4.460783675312995911e-02,2.168347686529159546e-01,-2.778439819812774658e-01,-4.094350710511207581e-02,1.571720689535140991e-01,-3.147009909152984619e-01,-6.808672100305557251e-02,1.562389582395553589e-01
