4.741093158721923828e+00,1.034963488578796387e+00,4.924316406250000000e-01,-7.845669984817504883e-01,-8.481967449188232422e-01,-1.031088590621948242e+00,-2.574081659317016602e+00,-2.585298299789428711e+00,-3.765606641769409180e+00,2.382771730422973633e+00,7.389382123947143555e-01,2.642806246876716614e-02,3.812880069017410278e-02,-1.133635520935058594e+00,-3.054673038423061371e-02,-7.692266702651977539e-01,-6.158053874969482422e-01,-6.385010480880737305e-01,3.994438171386718750e+00,2.441992998123168945e+00,1.709286808967590332e+00,1.363419741392135620e-01,6.728196740150451660e-01,1.898256838321685791e-01,-1.114628195762634277e+00,-1.048028230667114258e+00,-1.132600545883178711e+00
-5.881987094879150391e+00,-5.210041999816894531e+00,-2.283017635345458984e+00,-1.276178598403930664e+00,-3.329606056213378906e-01,3.683425113558769226e-02,1.046680688858032227e+00,1.570110082626342773e+00,3.020883083343505859e+00,4.936292648315429688e+00,1.838725686073303223e+00,1.456047773361206055e+00,6.394143700599670410e-01,-3.550409972667694092e-01,-4.091748595237731934e-02,-9.368048310279846191e-01,-1.004349112510681152e+00,-1.976092457771301270e-01,-1.456513524055480957e+00,-1.128021478652954102e+00,-3.685449063777923584e-01,6.312953233718872070e-01,-1.442774087190628052e-01,-1.556193381547927856e-01,2.869858145713806152e-01,1.460107088088989258e+00,2.662978887557983398e+00
1.111106872558593750e+00,2.185277223587036133e+00,7.482562065124511719e-01,1.537172794342041016e+00,-2.770080566406250000e-01,2.892873622477054596e-02,-1.024865433573722839e-01,5.984471440315246582e-01,-2.790653705596923828e-01,2.031240463256835938e+00,1.890028595924377441e+00,1.133267760276794434e+00,2.064206123352050781e+00,2.297664642333984375e+00,1.126004934310913086e+00,5.106816291809082031e-01,6.639609336853027344e-01,-1.730334758758544922e+00,-2.491436719894409180e+00,-1.247325778007507324e+00,-2.885686635971069336e+00,-9.785554409027099609e-01,-3.513783812522888184e-01,-9.228950738906860352e-01,-1.883651256561279297e+00,-1.776136875152587891e+00,-3.169926643371582031e+00
1.058116629719734192e-01,1.953734636306762695e+00,1.461574554443359375e+00,1.341450810432434082e-01,1.454539656639099121e+00,7.578575015068054199e-01,1.859926700592041016e+00,6.418344974517822266e-01,1.321217775344848633e+00,-9.690454483032226562e+00,-4.504789352416992188e+00,-2.366681337356567383e+00,-2.565225124359130859e+00,-1.047180652618408203e+00,-9.479535818099975586e-01,1.241349101066589355e+00,9.005985260009765625e-01,2.610761404037475586e+00,-3.117920756340026855e-01,-2.189595401287078857e-01,1.554853439331054688e+00,6.699554324150085449e-01,-5.541657209396362305e-01,6.617993712425231934e-01,2.586136817932128906e+00,1.184571385383605957e+00,1.677815556526184082e+00
