-1.015662789344787598e+00,-3.006808459758758545e-01,1.878064721822738647e-01,9.227833151817321777e-01,8.113139271736145020e-01,1.888658523559570312e+00,6.224588751792907715e-01,-1.013076901435852051e+00,2.538273334503173828e-01,-2.909886837005615234e-01,-8.043606877326965332e-01,-5.530483722686767578e-01,8.468887209892272949e-01,9.819469600915908813e-02,-5.934848785400390625e-01,-5.035397410392761230e-02,1.246263161301612854e-01,-1.182455301284790039e+00,-7.667721807956695557e-02,-7.427505850791931152e-01,-1.001737236976623535e+00,-1.291186362504959106e-01,9.992648661136627197e-02,1.561255455017089844e+00,-2.579118967056274414e+00,-1.596832513809204102e+00,-7.776003330945968628e-02,3.865515232086181641e+00,1.653670668601989746e+00,-2.091887146234512329e-01,-2.531384825706481934e-01,-1.153773665428161621e+00,-1.981715083122253418e+00,1.229200005531311035e+00,9.158834218978881836e-01,8.155403137207031250e-01,3.174831151962280273e+00,-2.162215262651443481e-01,-1.963081836700439453e+00,-1.870317220687866211e+00,1.170273795723915100e-01,7.507293224334716797e-01,5.918335914611816406e-01,-1.533419340848922729e-01,5.070464685559272766e-02,3.257550597190856934e-01,1.768620163202285767e-01,6.221393495798110962e-02
-1.293993473052978516e+00,2.470703870058059692e-01,3.698235750198364258e-01,-1.123131513595581055e+00,-7.087409030646085739e-03,2.348535060882568359e+00,2.311201095581054688e-01,-1.268246412277221680e+00,1.300031542778015137e+00,3.162699937820434570e-02,1.957318484783172607e-01,2.233211755752563477e+00,-2.818208217620849609e+00,-1.234934449195861816e+00,2.721337795257568359e+00,-2.323880672454833984e+00,9.675636887550354004e-02,2.465197086334228516e+00,-1.464313030242919922e+00,-3.612677752971649170e-01,1.249055743217468262e+00,-1.954515576362609863e+00,1.025279879570007324e+00,1.383461713790893555e+00,-3.898510336875915527e-01,-1.027181670069694519e-01,1.152415156364440918e+00,-1.154453635215759277e+00,-9.024181216955184937e-02,-2.369058430194854736e-01,6.306207925081253052e-02,3.474488854408264160e-01,-8.920778334140777588e-02,1.778688728809356689e-01,1.499753594398498535e-01,5.912016630172729492e-01,-5.270207524299621582e-01,1.381547749042510986e-01,-7.003499269485473633e-01,1.758224487304687500e+00,-6.734745502471923828e-01,-9.723786115646362305e-01,-5.236963033676147461e-01,-9.954807907342910767e-02,8.197324275970458984e-01,6.405411958694458008e-01,-3.613691926002502441e-01,-6.844750046730041504e-02
-1.172043561935424805e+00,3.332563042640686035e-01,-7.307878136634826660e-01,8.688600063323974609e-01,5.109468102455139160e-01,6.866341233253479004e-01,5.470877885818481445e-01,4.840808808803558350e-01,-1.490588486194610596e-01,1.173063755035400391e+00,1.631518840789794922e+00,1.392524242401123047e+00,-2.444716403260827065e-03,8.247870802879333496e-01,4.160873293876647949e-01,-5.058600306510925293e-01,-1.055635690689086914e+00,-1.707961082458496094e+00,4.119467735290527344e-01,4.181908071041107178e-01,-4.104694724082946777e-01,-2.899401783943176270e-01,4.135117232799530029e-01,1.364286899566650391e+00,7.433012127876281738e-01,7.469770312309265137e-02,-5.342938303947448730e-01,7.828390598297119141e-01,3.063056766986846924e-01,4.242162704467773438e-01,1.114747881889343262e+00,1.200348734855651855e+00,1.964154720306396484e+00,1.109098196029663086e+00,9.137903451919555664e-01,-7.573012113571166992e-01,-7.199529409408569336e-01,-1.352552324533462524e-01,-1.735726147890090942e-01,-4.938675463199615479e-01,1.521229892969131470e-01,6.794344782829284668e-01,-1.219557046890258789e+00,-4.830836951732635498e-01,6.667850613594055176e-01,-8.958594202995300293e-01,5.416347980499267578e-01,1.591883063316345215e+00
-1.675667166709899902e+00,7.232245206832885742e-01,-3.578016757965087891e-01,7.730420231819152832e-01,8.846230059862136841e-02,-1.552775263786315918e+00,9.372907876968383789e-01,-9.375911951065063477e-02,-7.276054620742797852e-01,-3.155929148197174072e-01,1.337058663368225098e+00,1.144020318984985352e+00,-3.114952802658081055e+00,9.165546894073486328e-01,9.372878074645996094e-01,-2.156776666641235352e+00,2.659712314605712891e+00,-5.465782880783081055e-01,-7.379558682441711426e-01,1.099392533302307129e+00,5.017520785331726074e-01,-2.125728607177734375e+00,7.911200523376464844e-01,7.554867863655090332e-01,-7.410270571708679199e-01,-5.781225562095642090e-01,1.534486651420593262e+00,-4.978646636009216309e-01,1.416283965110778809e+00,-6.761466264724731445e-01,-2.145031213760375977e+00,1.954215526580810547e+00,1.452085852622985840e+00,-9.838264584541320801e-01,8.397420644760131836e-01,3.059449493885040283e-01,-5.434601902961730957e-01,1.651303887367248535e+00,-9.396492242813110352e-01,-1.897596240043640137e+00,6.185255646705627441e-01,1.348003387451171875e+00,-4.877536296844482422e-01,6.788480281829833984e-01,-1.053330063819885254e+00,-9.905446171760559082e-01,3.873592019081115723e-01,5.725105404853820801e-01
7.866808176040649414e-01,6.886580586433410645e-01,7.000946402549743652e-01,-7.916342020034790039e-01,9.262900054454803467e-02,-3.755742311477661133e-01,-4.155483245849609375e-01,-2.534231543540954590e-01,-1.644655466079711914e+00,-7.376263141632080078e-01,-2.761240005493164062e-01,3.282164633274078369e-01,-1.145588636398315430e+00,7.735168337821960449e-01,2.074451208114624023e+00,5.377058386802673340e-01,1.206798791885375977e+00,-9.929700754582881927e-03,-2.864571809768676758e-01,-5.896073207259178162e-02,2.287300676107406616e-01,9.614159911870956421e-02,-4.844306111335754395e-01,6.205670237541198730e-01,2.526537775993347168e-01,3.820826709270477295e-01,1.759587168693542480e+00,-4.519880712032318115e-01,-4.588302671909332275e-01,3.336023166775703430e-02,-1.146819591522216797e+00,-4.822051227092742920e-01,6.712416559457778931e-02,-1.463862419128417969e+00,2.890280075371265411e-02,1.237361788749694824e+00,-1.410288214683532715e+00,-5.268946290016174316e-01,1.268439531326293945e+00,-1.598757743835449219e+00,-1.921534299850463867e+00,9.830119609832763672e-01,1.871911764144897461e+00,-1.351852059364318848e+00,-3.565633296966552734e-01,-1.188474535942077637e+00,-1.423517465591430664e+00,3.233759880065917969e+00
-4.732656478881835938e-01,-6.961457431316375732e-02,-2.864011228084564209e-01,-3.340622782707214355e-02,-1.942746937274932861e-01,1.919155567884445190e-01,1.735074877738952637e+00,6.930196881294250488e-01,-5.913591980934143066e-01,1.573391318321228027e+00,1.356652259826660156e+00,9.822089672088623047e-01,-6.710768938064575195e-01,-9.419147968292236328e-01,-1.614952564239501953e+00,4.243576526641845703e-01,7.113789916038513184e-01,-5.046889185905456543e-01,8.588199615478515625e-01,5.329362750053405762e-01,-2.117001712322235107e-01,-8.243871927261352539e-01,-3.909546732902526855e-01,-1.571573138236999512e+00,-1.185336470603942871e+00,3.556289076805114746e-01,-1.372633874416351318e-01,-3.762008666992187500e+00,-1.138872861862182617e+00,-5.206087231636047363e-01,1.949007153511047363e+00,1.840198636054992676e+00,2.992785930633544922e+00,8.543813824653625488e-01,-1.203642249107360840e+00,-7.693709731101989746e-01,-7.563605904579162598e-01,-6.627539992332458496e-01,1.617876648902893066e+00,9.436862468719482422e-01,1.100377559661865234e+00,8.132277131080627441e-01,-7.866849303245544434e-01,-5.329897999763488770e-01,2.318729758262634277e-01,-4.106934964656829834e-01,-3.006593883037567139e-01,-9.422045946121215820e-02
-9.735878705978393555e-01,-1.542669177055358887e+00,-7.718517184257507324e-01,2.637760937213897705e-01,2.957845628261566162e-01,6.621857881546020508e-01,-5.121732354164123535e-01,-4.233590066432952881e-01,-1.595318764448165894e-01,3.360067009925842285e-01,-4.924580827355384827e-02,3.390042111277580261e-03,8.617264628410339355e-01,1.681094288825988770e+00,1.966700553894042969e+00,-3.585140705108642578e-01,3.478054106235504150e-01,1.948718428611755371e+00,-7.368203252553939819e-02,2.547707855701446533e-01,3.649202287197113037e-01,-9.293815493583679199e-02,-1.338332295417785645e+00,-1.357855081558227539e+00,-5.097993612289428711e-01,-1.377136349678039551e+00,-1.796262264251708984e+00,8.791408538818359375e-01,1.116408944129943848e+00,1.207125306129455566e+00,-5.950973033905029297e-01,-7.033899426460266113e-02,1.759965419769287109e-01,-4.547624289989471436e-01,4.244353473186492920e-01,1.457818746566772461e+00,-1.738680750131607056e-01,3.766685128211975098e-01,5.807287096977233887e-01,-1.736012399196624756e-01,-1.819754019379615784e-02,-1.078216210007667542e-01,1.048862099647521973e+00,-3.039999119937419891e-02,1.058866381645202637e+00,-5.408544540405273438e-01,-1.372139215469360352e+00,-1.497821211814880371e-01
1.562850952148437500e+00,-3.651311397552490234e-01,-8.035612106323242188e-01,1.350995540618896484e+00,-3.518581688404083252e-01,-1.544505953788757324e+00,-1.083465576171875000e+00,-8.826584219932556152e-01,-1.812993168830871582e+00,7.004613280296325684e-01,4.604996740818023682e-01,-1.728287577629089355e+00,1.674708843231201172e+00,3.990812599658966064e-02,-1.802817821502685547e+00,2.438813209533691406e+00,3.491993248462677002e-01,-1.092281937599182129e-01,6.815490126609802246e-01,7.450046390295028687e-02,-2.141964733600616455e-01,-3.616124689579010010e-01,-1.081214904785156250e+00,-8.797363638877868652e-01,4.195564389228820801e-01,5.544639378786087036e-02,-1.548564791679382324e+00,-1.808753013610839844e+00,8.658300042152404785e-01,1.435659766197204590e+00,6.880921125411987305e-02,9.692053794860839844e-01,4.548607468605041504e-01,-9.836701750755310059e-01,5.169869661331176758e-01,7.674278318881988525e-02,-3.709072768688201904e-01,1.884944081306457520e+00,1.290388941764831543e+00,-1.451563984155654907e-01,-4.258048832416534424e-01,-3.900329768657684326e-01,-5.526715517044067383e-01,4.295582175254821777e-01,1.408466100692749023e-01,3.830294013023376465e-01,4.261641204357147217e-02,6.621064543724060059e-01
