2.478045463562011719e+00,4.807817339897155762e-01,9.440359473228454590e-01,-1.313264012336730957e+00,-5.355118513107299805e-01,-1.146919965744018555e+00,-3.800062179565429688e+00,-1.954317331314086914e+00,-2.153321802616119385e-01,2.043834209442138672e+00,-2.738585174083709717e-01,-2.312204092741012573e-01,3.463614225387573242e+00,1.127964854240417480e+00,6.000892519950866699e-01,-1.563650608062744141e+00,5.103491544723510742e-01,1.432924389839172363e+00,1.274211525917053223e+00,-3.204582929611206055e-01,-3.110996246337890625e+00,-1.446706414222717285e+00,-5.883967876434326172e-01,9.039822816848754883e-01
2.462201356887817383e+00,-1.070977374911308289e-01,-1.304485678672790527e+00,4.001148700714111328e+00,-6.178275346755981445e-01,-2.257972955703735352e+00,-2.765134096145629883e+00,-3.582130670547485352e-01,-1.032316088676452637e+00,4.597189426422119141e+00,1.938467770814895630e-01,-1.113334298133850098e+00,3.574683666229248047e-01,1.321808576583862305e+00,9.887687563896179199e-01,1.224848270416259766e+00,-5.731784701347351074e-01,9.931481480598449707e-01,-1.083508968353271484e+00,3.236206769943237305e-01,3.376980721950531006e-01,-4.015128612518310547e+00,1.510276556015014648e+00,1.216092482209205627e-01
-2.547527313232421875e+00,-3.916641771793365479e-01,1.289793372154235840e+00,-3.075570821762084961e+00,-7.744355797767639160e-01,1.648679375648498535e+00,-9.305191040039062500e-01,-1.100937947630882263e-01,-2.172512292861938477e+00,3.063858747482299805e-01,-2.482595890760421753e-01,2.222246170043945312e+00,2.699008226394653320e+00,1.307066321372985840e+00,1.249250054359436035e+00,3.767664194107055664e+00,2.810699641704559326e-01,1.914022088050842285e+00,-7.006265521049499512e-01,4.401329532265663147e-02,-1.889531135559082031e+00,7.113766074180603027e-01,9.738351106643676758e-01,-1.862987160682678223e+00
